{
  "input_sequences": [
    {
      "name": "node_0",
      "variables": [
        {
          "name": "variable_0",
          "offset": 0,
          "scale": 1
        },
        {
          "name": "variable_1",
          "offset": 0,
          "scale": 1
        },
        {
          "name": "variable_2",
          "offset": 0,
          "scale": 1
        },
        {
          "name": "variable_3",
          "offset": 0,
          "scale": 1
        }
      ]
    }
  ],
  "inputs": [
    {
      "name": "node_0",
      "variables": [
        {
          "name": "variable_0",
          "offset": 0,
          "scale": 1
        }
      ]
    },
    {
      "name": "node_1",
      "variables": [
        {
          "name": "variable_0",
          "offset": 0,
          "scale": 1
        },
        {
          "name": "variable_1",
          "offset": 0,
          "scale": 1
        },
        {
          "name": "variable_2",
          "offset": 0,
          "scale": 1
        }
      ]
    }
  ],
  "layers": [
    {
      "activation": "linear",
      "architecture": "dense",
      "bias": [
        0.0,
        0.0,
        0.0,
        0.0
      ],
      "weights": [
        0.5315737128257751,
        -0.7130928039550781,
        -0.36286377906799316,
        0.5583910346031189,
        0.33231574296951294,
        0.11883342266082764,
        -0.519544243812561,
        0.36622756719589233,
        0.3099321722984314,
        0.7159590125083923,
        0.7003464102745056,
        0.7003757357597351,
        -0.26424217224121094,
        0.16343039274215698,
        -0.025086045265197754,
        -0.5634821653366089
      ]
    },
    {
      "activation": "tanh",
      "architecture": "gru",
      "components": {
        "h": {
          "U": [
            0.21889963746070862,
            -0.08739660680294037,
            -0.2576609253883362,
            -0.2917812466621399,
            0.11391891539096832,
            0.6127249598503113,
            0.0860707014799118,
            0.22388750314712524,
            0.09307562559843063,
            -0.03871724754571915,
            0.1439330130815506,
            0.12024690955877304,
            -0.6423391103744507,
            -0.25026756525039673,
            -0.40456417202949524,
            0.24958841502666473,
            0.061278603971004486,
            -0.2199314534664154,
            0.1861031949520111,
            -0.1691906601190567,
            0.3313218355178833,
            -0.034893471747636795,
            0.07200625538825989,
            -0.21869000792503357,
            0.02577410265803337
          ],
          "bias": [
            0.0,
            0.0,
            0.0,
            0.0,
            0.0
          ],
          "weights": [
            0.32561683654785156,
            0.04546487331390381,
            0.13667231798171997,
            0.49527639150619507,
            -0.5005871057510376,
            -0.015774846076965332,
            0.5361046195030212,
            -0.33653146028518677,
            0.41469311714172363,
            -0.3732146918773651,
            0.5282073616981506,
            0.4150877594947815,
            0.05688899755477905,
            0.11509048938751221,
            -0.39054736495018005,
            0.03364121913909912,
            0.33739787340164185,
            -0.18875759840011597,
            0.13861346244812012,
            0.44277530908584595
          ]
        },
        "r": {
          "U": [
            0.05556902289390564,
            0.24710531532764435,
            -0.17301660776138306,
            -0.29504483938217163,
            0.5908600091934204,
            -0.03442002832889557,
            -0.08570840209722519,
            0.028393251821398735,
            -0.18814314901828766,
            0.450888454914093,
            -0.22791805863380432,
            0.23208515346050262,
            -0.05731629207730293,
            -0.13446396589279175,
            0.1908971518278122,
            0.11139277368783951,
            -0.5994811058044434,
            -0.00028856343124061823,
            -0.42402884364128113,
            0.00495572667568922,
            -0.1992262452840805,
            0.2993867099285126,
            0.3077542185783386,
            -0.2907019257545471,
            -0.1555466502904892
          ],
          "bias": [
            0.0,
            0.0,
            0.0,
            0.0,
            0.0
          ],
          "weights": [
            0.41841262578964233,
            -0.2889094948768616,
            -0.41959965229034424,
            0.20254528522491455,
            -0.4425123333930969,
            0.029038190841674805,
            0.46303993463516235,
            -0.0745956301689148,
            -0.4456508457660675,
            -0.1372348964214325,
            0.06773579120635986,
            0.3805046081542969,
            -0.5575417280197144,
            0.07177561521530151,
            0.31381744146347046,
            -0.4231542944908142,
            0.5368519425392151,
            0.06502389907836914,
            -0.2698262333869934,
            -0.22343730926513672
          ]
        },
        "z": {
          "U": [
            -0.15875037014484406,
            0.40485918521881104,
            0.02945982851088047,
            -0.4631783068180084,
            -0.2951500415802002,
            0.26135826110839844,
            0.08879117667675018,
            0.476927787065506,
            -0.2078663408756256,
            -0.19165846705436707,
            0.0007381242467090487,
            -0.22952879965305328,
            -0.10994254052639008,
            -0.11499382555484772,
            -0.09159284830093384,
            -0.3560388386249542,
            -0.4118766486644745,
            0.1544226109981537,
            -0.1950635015964508,
            -0.2085430920124054,
            -0.23510220646858215,
            -0.010980300605297089,
            -0.15598221123218536,
            0.21737807989120483,
            -0.06130678579211235
          ],
          "bias": [
            0.0,
            0.0,
            0.0,
            0.0,
            0.0
          ],
          "weights": [
            -0.23988282680511475,
            0.0959845781326294,
            -0.48867762088775635,
            -0.11592218279838562,
            0.08107918500900269,
            0.00837928056716919,
            0.207710862159729,
            0.5251720547676086,
            -0.2839382290840149,
            -0.3280927836894989,
            -0.387829065322876,
            -0.47701549530029297,
            -0.19976690411567688,
            -0.25082433223724365,
            0.09436118602752686,
            0.1807747483253479,
            0.4384225010871887,
            -0.049391746520996094,
            -0.10764303803443909,
            -0.4989902675151825
          ]
        }
      },
      "inner_activation": "hard_sigmoid"
    },
    {
      "activation": "linear",
      "architecture": "dense",
      "bias": [
        0.0,
        0.0,
        0.0,
        0.0,
        0.0,
        0.0
      ],
      "weights": [
        -0.5388681292533875,
        -0.14698493480682373,
        -0.5649749040603638,
        0.550471305847168,
        -0.18907105922698975,
        -0.008342623710632324,
        0.4719651937484741,
        0.5053876638412476,
        0.6001294851303101,
        -0.35162392258644104,
        -0.04601871967315674,
        0.03592103719711304,
        0.6982080936431885,
        0.08134514093399048,
        0.032643914222717285,
        0.4574383497238159,
        -0.6463541984558105,
        0.4078477621078491,
        -0.22248047590255737,
        -0.13283562660217285,
        -0.040258049964904785,
        -0.4104202687740326,
        -0.41424301266670227,
        -0.5483971834182739
      ]
    },
    {
      "activation": "softmax",
      "architecture": "dense",
      "bias": [
        0.0,
        0.0,
        0.0,
        0.0
      ],
      "weights": [
        0.39493417739868164,
        0.27138495445251465,
        0.15570741891860962,
        -0.26878148317337036,
        -0.6520934700965881,
        0.4433366060256958,
        -0.7716936469078064,
        -0.163041353225708,
        -0.5448635816574097,
        -0.4665454924106598,
        -0.32899010181427,
        -0.5545353293418884,
        0.1695001721382141,
        0.10679751634597778,
        -0.5284087657928467,
        -0.6472885608673096,
        0.42664051055908203,
        0.08435988426208496,
        -0.48599207401275635,
        -0.17823326587677002,
        -0.17614489793777466,
        -0.25261175632476807,
        -0.2016465663909912,
        0.6715989112854004
      ]
    },
    {
      "activation": "linear",
      "architecture": "dense",
      "bias": [
        0.0,
        0.0,
        0.0,
        0.0
      ],
      "weights": [
        -0.08315712213516235,
        -0.3467658460140228,
        0.6790410280227661,
        0.5406818389892578,
        -0.7101626992225647,
        -0.7450878024101257,
        0.08906382322311401,
        0.02169787883758545,
        -0.6606020331382751,
        -0.4739518463611603,
        0.16713345050811768,
        -0.6978988647460938,
        -0.2447441816329956,
        -0.07484787702560425,
        -0.08295917510986328,
        -0.09973835945129395,
        0.38500452041625977,
        0.31720077991485596,
        0.19837522506713867,
        0.3406507968902588
      ]
    }
  ],
  "nodes": [
    {
      "layer_index": 2,
      "sources": [
        3
      ],
      "type": "feed_forward"
    },
    {
      "layer_index": 3,
      "sources": [
        0
      ],
      "type": "feed_forward"
    },
    {
      "layer_index": 3,
      "sources": [
        4
      ],
      "type": "feed_forward"
    },
    {
      "sources": [
        10,
        5
      ],
      "type": "concatenate"
    },
    {
      "sources": [
        6,
        10
      ],
      "type": "concatenate"
    },
    {
      "size": 3,
      "sources": [
        1
      ],
      "type": "input"
    },
    {
      "layer_index": 1,
      "sources": [
        8
      ],
      "type": "sequence"
    },
    {
      "layer_index": 4,
      "sources": [
        6
      ],
      "type": "feed_forward"
    },
    {
      "layer_index": 0,
      "sources": [
        9
      ],
      "type": "time_distributed"
    },
    {
      "size": 4,
      "sources": [
        0
      ],
      "type": "input_sequence"
    },
    {
      "size": 1,
      "sources": [
        0
      ],
      "type": "input"
    }
  ],
  "outputs": {
    "DL1_shared_0": {
      "labels": [
        "out_0",
        "out_1",
        "out_2",
        "out_3"
      ],
      "node_index": 1
    },
    "DL1_shared_1": {
      "labels": [
        "out_0",
        "out_1",
        "out_2",
        "out_3"
      ],
      "node_index": 2
    },
    "rnnip_out_0": {
      "labels": [
        "out_0",
        "out_1",
        "out_2",
        "out_3"
      ],
      "node_index": 7
    }
  }
}
