{
  "defaults": {},
  "inputs": [
    {
      "name": "y_Reta",
      "offset": 0,
      "scale": 1
    },
    {
      "name": "y_Rphi",
      "offset": 0,
      "scale": 1
    },
    {
      "name": "y_Rhad",
      "offset": 0,
      "scale": 1
    },
    {
      "name": "y_weta1",
      "offset": 0,
      "scale": 1
    },
    {
      "name": "y_fracs1",
      "offset": 0,
      "scale": 1
    },
    {
      "name": "y_weta2",
      "offset": 0,
      "scale": 1
    }
  ],
  "layers": [
    {
      "activation": "rectified",
      "architecture": "dense",
      "bias": [
        -0.29848936200141907,
        0.09097809344530106,
        -0.6384687423706055,
        0.521544873714447,
        0.5331897139549255,
        0.00012506026541814208,
        4.5574201067211106e-05,
        0.015730323269963264,
        0.22806209325790405,
        2.5035802536876872e-05,
        -1.2516366041381843e-06,
        -0.4604250192642212,
        0.019454481080174446,
        -0.8576038479804993,
        -0.4455680251121521,
        -0.027603864669799805,
        0.0,
        -0.7362383008003235,
        -0.04770634323358536,
        -0.0383775569498539,
        -0.004124699160456657,
        -0.1812008172273636,
        0.0,
        0.3468100428581238,
        3.779493999900296e-05,
        0.0,
        5.1974799134768546e-05,
        -0.23194529116153717,
        -0.040227413177490234,
        0.23707008361816406,
        0.011585872620344162,
        0.0,
        1.3715272871195339e-05,
        -0.04240275174379349,
        -0.04042580723762512,
        -0.03314831852912903,
        -0.0012442988809198141,
        0.16630712151527405,
        -0.05539090931415558,
        -0.0018082185415551066,
        -0.07408946007490158,
        -0.07703528553247452,
        0.0,
        0.1904284507036209,
        -1.5600577171426266e-05,
        -0.19943393766880035,
        -0.060716625303030014,
        -0.05158950015902519,
        0.1475404053926468,
        -0.05091720446944237,
        -0.19774019718170166,
        -0.07194491475820541,
        -0.03823540359735489,
        0.0,
        -0.22651761770248413,
        2.290816519234795e-05,
        0.10736849159002304,
        0.35063838958740234,
        0.00010009823017753661,
        -0.004490405786782503,
        -0.14357903599739075,
        -0.10005281865596771,
        -0.09134210646152496,
        0.07599186897277832
      ],
      "weights": [
        -0.3667423129081726,
        0.6117957830429077,
        -0.48219114542007446,
        0.17242011427879333,
        -0.03824077919125557,
        1.9974168539047241,
        -0.41504135727882385,
        -0.07567570358514786,
        0.2911630868911743,
        0.14533524215221405,
        -0.12596477568149567,
        -1.173394799232483,
        -0.22655004262924194,
        1.2678725719451904,
        -0.21698464453220367,
        0.012572853825986385,
        0.06705121695995331,
        1.0265545845031738,
        -0.18006844818592072,
        0.27083727717399597,
        0.4128149747848511,
        0.12288792431354523,
        -0.08157344162464142,
        3.3921091556549072,
        0.15819910168647766,
        -0.036659594625234604,
        0.38635367155075073,
        0.03284208104014397,
        0.016288550570607185,
        -6.175535678863525,
        -0.2495754361152649,
        -0.17872972786426544,
        0.05674631893634796,
        -0.20714959502220154,
        0.2125522643327713,
        0.17549370229244232,
        -0.033783264458179474,
        -0.15352308750152588,
        -0.11753033846616745,
        -0.1867646425962448,
        0.007761654909700155,
        -0.16290825605392456,
        0.04495607689023018,
        -0.2321842759847641,
        -0.047990068793296814,
        0.5082578063011169,
        -0.34663814306259155,
        0.9309412837028503,
        -0.25336217880249023,
        0.08891954272985458,
        0.1032310202717781,
        0.20130541920661926,
        -0.10700169205665588,
        -5.024580955505371,
        -0.2600419223308563,
        -0.21918456256389618,
        -0.05588337033987045,
        -0.26686275005340576,
        0.2595961391925812,
        0.09406426548957825,
        -0.0604826845228672,
        -0.26206931471824646,
        -0.17615312337875366,
        -0.20450973510742188,
        -0.22471080720424652,
        -0.28216978907585144,
        0.12517662346363068,
        0.7038424015045166,
        0.025791773572564125,
        0.11758468300104141,
        -0.05832318589091301,
        -0.012953407131135464,
        -0.20005688071250916,
        -0.1614372283220291,
        0.009586195461452007,
        -0.12262579798698425,
        -0.23769262433052063,
        0.20802174508571625,
        1.0755277872085571,
        -0.05144040659070015,
        -0.01044551096856594,
        0.018840575590729713,
        -0.0785568580031395,
        -0.8878037333488464,
        0.6519798636436462,
        -0.04566138610243797,
        -0.35866883397102356,
        0.18339139223098755,
        -0.03623800352215767,
        4.267467498779297,
        -0.021046005189418793,
        0.10623527318239212,
        -0.25022003054618835,
        -0.25563228130340576,
        0.006660677958279848,
        -0.2484758049249649,
        -0.11580725759267807,
        -0.16634288430213928,
        0.04019010066986084,
        0.058730348944664,
        -0.14561522006988525,
        -0.04531468078494072,
        0.7806797623634338,
        0.02611626498401165,
        -0.020282283425331116,
        0.34599998593330383,
        -0.16181379556655884,
        -0.9678211212158203,
        -0.2686085104942322,
        0.008100742474198341,
        0.6629214882850647,
        -0.09846652299165726,
        0.45664462447166443,
        -0.17792074382305145,
        0.09832300245761871,
        -0.13145914673805237,
        0.04396515339612961,
        -0.3048463761806488,
        0.07017175853252411,
        0.21828126907348633,
        -0.20303820073604584,
        0.4654066264629364,
        0.4630943238735199,
        -0.1218961849808693,
        0.020041566342115402,
        -2.008753538131714,
        0.4073732793331146,
        -0.5438096523284912,
        0.614319384098053,
        0.09376905858516693,
        0.1007215604186058,
        1.7306784391403198,
        -0.2661535143852234,
        0.06574105471372604,
        -0.023355728015303612,
        0.12083353102207184,
        0.07464674115180969,
        0.16292260587215424,
        0.06702254712581635,
        0.11976515501737595,
        0.06075835973024368,
        0.009748978540301323,
        -0.04119371250271797,
        4.749246597290039,
        0.09104587137699127,
        -0.1454014629125595,
        0.04556809365749359,
        -0.21433913707733154,
        -0.22687678039073944,
        -0.015960033982992172,
        -0.19092288613319397,
        -0.23679739236831665,
        0.07298079133033752,
        0.0035764193162322044,
        0.24332395195960999,
        -0.20932118594646454,
        -0.27786001563072205,
        -0.21096938848495483,
        -0.036267708986997604,
        -0.25364845991134644,
        -0.1884400099515915,
        -0.015228541567921638,
        0.3499252200126648,
        -0.08625513315200806,
        -0.3293379545211792,
        -0.21016329526901245,
        0.05184444040060043,
        -1.1761561632156372,
        -0.06981199979782104,
        0.165528804063797,
        0.05564248934388161,
        -0.3036005198955536,
        -0.29778969287872314,
        -0.05934922769665718,
        0.004074552096426487,
        -0.04962679371237755,
        0.903815746307373,
        -0.07358430325984955,
        0.13719366490840912,
        -0.09409735351800919,
        -0.2815701365470886,
        -0.26148173213005066,
        -0.09490388631820679,
        -0.17950204014778137,
        0.14775365591049194,
        0.1454404592514038,
        -0.17704206705093384,
        -0.09164565056562424,
        0.01445180643349886,
        0.1939152032136917,
        0.06288224458694458,
        -0.1454898566007614,
        -0.19845086336135864,
        0.11186981201171875,
        -0.2880338430404663,
        -0.20076590776443481,
        -0.039128150790929794,
        -0.19631758332252502,
        -0.08618426322937012,
        -0.29886743426322937,
        0.9099693298339844,
        0.18616783618927002,
        0.2111823707818985,
        0.2427603006362915,
        -0.1183089092373848,
        5.2040886657778174e-05,
        -0.07736781239509583,
        -0.20637543499469757,
        0.30064570903778076,
        -0.1976713389158249,
        -0.1485808789730072,
        -0.19960273802280426,
        0.08937539905309677,
        0.25010761618614197,
        -0.29869773983955383,
        -0.0509880855679512,
        0.040596526116132736,
        -0.010718275792896748,
        1.551469087600708,
        -0.30916255712509155,
        0.16112343966960907,
        0.0701855942606926,
        0.27396881580352783,
        0.04420631378889084,
        0.07699333131313324,
        0.03873461112380028,
        0.07648993283510208,
        -7.628076076507568,
        0.05327487364411354,
        -0.2617051601409912,
        0.10896465927362442,
        -0.21271280944347382,
        0.08165103197097778,
        0.01223566010594368,
        -0.00958044920116663,
        -0.23887082934379578,
        -0.04466196149587631,
        0.006323929410427809,
        0.12847550213336945,
        -0.2828127145767212,
        0.14719712734222412,
        -0.31698399782180786,
        0.1493416577577591,
        -0.3494565784931183,
        0.08246444165706635,
        -0.21407553553581238,
        -0.09610632061958313,
        0.10037564486265182,
        -0.12009800970554352,
        0.006015215069055557,
        -0.09144365042448044,
        1.14082670211792,
        -0.04307616502046585,
        -0.22229339182376862,
        0.04114595055580139,
        0.2038607895374298,
        -0.15942266583442688,
        0.16387347877025604,
        -0.26282188296318054,
        -0.04712289571762085,
        0.04821090027689934,
        0.3578333258628845,
        -0.04338090866804123,
        -1.487646460533142,
        -0.08358770608901978,
        -0.05649833381175995,
        -0.1709667146205902,
        -0.2732013463973999,
        -0.1314956694841385,
        -0.008455281145870686,
        0.09027796238660812,
        -0.01142836082726717,
        0.12557916343212128,
        0.04671887680888176,
        0.006543210241943598,
        0.4633748233318329,
        -0.03271118178963661,
        -0.2604847848415375,
        0.07168938219547272,
        -0.09707429260015488,
        -0.08675695955753326,
        -0.021058252081274986,
        0.10783174633979797,
        0.15806236863136292,
        -0.5034864544868469,
        0.03183654695749283,
        0.0057944259606301785,
        -3.9165568351745605,
        -0.2168879210948944,
        0.05526978150010109,
        0.47300446033477783,
        0.22877998650074005,
        -0.21478913724422455,
        1.1734095811843872,
        -0.14577054977416992,
        0.252939373254776,
        0.042963914573192596,
        -0.21921497583389282,
        -0.2021564096212387,
        0.061361271888017654,
        0.2853158712387085,
        -0.02447858639061451,
        0.39243432879447937,
        -0.02365122362971306,
        -0.022413043305277824,
        5.4006571769714355,
        0.06991484016180038,
        -0.1551678329706192,
        -0.06986089795827866,
        -0.2004687786102295,
        -0.23182980716228485,
        0.06654807180166245,
        -0.1874489039182663,
        0.13992543518543243,
        -0.29688045382499695,
        0.014265059493482113,
        -0.09628302603960037,
        -0.31734588742256165,
        -0.16845425963401794,
        0.06591585278511047,
        -0.2833626866340637,
        0.05367417633533478,
        -0.23549625277519226,
        -0.17666345834732056,
        0.26999491453170776,
        0.062218762934207916,
        -1.4922858476638794,
        0.053132493048906326,
        -0.09162057191133499,
        -0.5887006521224976,
        -0.05098964646458626,
        -0.2508791983127594,
        -0.17239558696746826,
        -0.0950113907456398,
        -0.0023997121024876833,
        0.07807568460702896,
        0.7013857364654541,
        0.0432165153324604,
        -0.15188714861869812,
        -0.16834814846515656,
        0.061078473925590515,
        3.693119525909424,
        0.28603971004486084,
        0.12025605142116547,
        0.25278332829475403,
        0.19742706418037415,
        0.11338996142148972,
        5.123520374298096,
        -0.1322600245475769,
        0.08223996311426163,
        -0.17201749980449677,
        -0.20346574485301971,
        0.09677549451589584,
        0.27038225531578064,
        -0.08601659536361694,
        0.05453154072165489,
        -0.04567698761820793,
        -0.167391836643219,
        -0.15727242827415466,
        0.04062075912952423,
        0.21214725077152252,
        -0.10993300378322601,
        0.36572811007499695,
        0.17283450067043304,
        0.23337818682193756,
        2.674588680267334,
        -0.05606430768966675,
        0.4207175076007843,
        0.25227004289627075,
        0.052712567150592804,
        -0.014188298024237156,
        2.683122396469116,
        -0.3171825706958771,
        -0.07811962813138962,
        -2.5426669120788574,
        0.5141869187355042,
        0.3749716579914093,
        0.17336750030517578,
        0.07402943819761276,
        0.261542946100235,
        0.188389390707016,
        -0.1926308125257492,
        -1.12337327003479,
        0.2620350122451782
      ]
    },
    {
      "architecture": "normalization",
      "bias": [
        -0.05456402525305748,
        -0.00013793259859085083,
        -0.3937399983406067,
        -0.6972144842147827,
        -0.6143470406532288,
        -4.079724021721631e-05,
        -1.7318991012871265e-05,
        -0.07349371910095215,
        -0.11929105967283249,
        -2.4963330361060798e-05,
        7.825883221812546e-05,
        -0.40030497312545776,
        0.00011906099098268896,
        -0.10845918953418732,
        -0.28027480840682983,
        0.000410667184041813,
        -0.001772097428329289,
        -0.20112498104572296,
        -0.002560280729085207,
        0.0011058625532314181,
        -0.16828052699565887,
        2.6202498702332377e-05,
        -1.966458876268007e-05,
        -0.571063756942749,
        1.8125312635675073e-05,
        0.00012176468590041623,
        5.406938726082444e-05,
        6.417999975383282e-05,
        -0.00012029006757074967,
        -0.16711314022541046,
        -5.013574264012277e-05,
        0.0017810219433158636,
        7.450958946719766e-05,
        0.00028280375408940017,
        2.883136403397657e-05,
        3.351138002471998e-05,
        0.0023151130881160498,
        -0.4407964050769806,
        0.0007189948228187859,
        3.768342503462918e-05,
        6.204877718118951e-05,
        -0.003490681992843747,
        0.0053102741949260235,
        -0.08691013604402542,
        0.001060577342286706,
        5.68325885978993e-05,
        -3.259265781707654e-07,
        -0.19172312319278717,
        -0.09703052043914795,
        -2.1025725800427608e-05,
        -0.08506117016077042,
        -0.021162593737244606,
        -0.0013139743823558092,
        6.810717877669958e-06,
        -0.08957982063293457,
        0.00010723555169533938,
        -0.767011284828186,
        -0.9382732510566711,
        -8.586616604588926e-05,
        -8.427017746726051e-05,
        -0.13878324627876282,
        -0.30230146646499634,
        -0.00937377568334341,
        -0.05282372608780861
      ],
      "weights": [
        35.16534423828125,
        28.923492431640625,
        22.642459869384766,
        34.353668212890625,
        70.80656433105469,
        48.261451721191406,
        51.61289596557617,
        27.98334312438965,
        40.36225128173828,
        47.26782989501953,
        32.78950119018555,
        23.14897918701172,
        42.823760986328125,
        31.690614700317383,
        40.342002868652344,
        6.916869163513184,
        31.622774124145508,
        29.243980407714844,
        26.269893646240234,
        6.4872941970825195,
        20.792255401611328,
        44.203773498535156,
        31.622774124145508,
        48.93952560424805,
        49.47776794433594,
        31.622774124145508,
        53.07869338989258,
        51.85769271850586,
        33.54080581665039,
        19.249637603759766,
        44.31965255737305,
        31.622774124145508,
        36.10001754760742,
        54.989540100097656,
        50.11161422729492,
        32.024959564208984,
        27.168745040893555,
        60.66241455078125,
        6.8180766105651855,
        28.735179901123047,
        49.5196533203125,
        18.991756439208984,
        31.622774124145508,
        31.355619430541992,
        1.0490682125091553,
        10.25782299041748,
        36.80011749267578,
        36.630733489990234,
        27.7381534576416,
        46.99679183959961,
        60.72404861450195,
        10.049187660217285,
        32.42454528808594,
        31.622774124145508,
        34.28084182739258,
        37.168373107910156,
        36.617210388183594,
        40.06942367553711,
        49.89994812011719,
        56.859107971191406,
        24.439302444458008,
        23.115400314331055,
        26.65536117553711,
        16.586442947387695
      ]
    },
    {
      "activation": "softmax",
      "architecture": "dense",
      "bias": [
        -0.009526689536869526,
        0.335190087556839,
        -0.40084993839263916,
        -0.26073431968688965,
        0.06556832045316696,
        -0.049721475690603256,
        0.45501625537872314,
        -0.3001770079135895,
        -0.1194688081741333,
        -0.08319168537855148,
        -0.3556668162345886,
        0.2950095236301422,
        0.13850954174995422,
        0.034338485449552536,
        -0.45784619450569153,
        0.011924502439796925,
        -0.5847180485725403,
        -0.180687814950943,
        -0.011425838805735111,
        0.11565130203962326,
        -0.20802852511405945,
        0.37682944536209106,
        -0.008273866027593613,
        -0.058535777032375336,
        0.42064011096954346,
        0.05591391772031784,
        0.07374507933855057,
        0.08882255107164383,
        -0.8066446781158447,
        0.07266496121883392,
        0.3174479603767395,
        -0.1560865044593811,
        0.3216603100299835,
        -0.2994356155395508,
        0.5069054365158081,
        -0.10718017816543579,
        -0.018055280670523643,
        0.2552793025970459,
        -0.04998233914375305,
        0.10545599460601807
      ],
      "weights": [
        0.3828411400318146,
        -0.0296931192278862,
        0.2177048772573471,
        0.10942422598600388,
        -0.4580511152744293,
        0.01740713231265545,
        0.0553567074239254,
        0.0040369462221860886,
        -0.3693690001964569,
        0.060507360845804214,
        -0.016181042417883873,
        0.16963252425193787,
        -0.008898784406483173,
        -0.20987136662006378,
        -0.001576459500938654,
        0.1003541648387909,
        0.1973152458667755,
        -0.20381073653697968,
        0.1751399040222168,
        -0.04461386427283287,
        -0.237258642911911,
        0.17522257566452026,
        0.003020964562892914,
        0.35331645607948303,
        0.07522792369127274,
        -0.02276286669075489,
        0.04277471452951431,
        0.09432334452867508,
        0.10047097504138947,
        0.012395487166941166,
        0.04048946499824524,
        -0.18480642139911652,
        0.07979518920183182,
        0.09155136346817017,
        0.05959859490394592,
        -0.06916441023349762,
        0.1248418539762497,
        -0.20454250276088715,
        -0.012497637420892715,
        0.05267314240336418,
        0.08015567809343338,
        -0.16639721393585205,
        -0.08525257557630539,
        0.17565235495567322,
        0.07150769233703613,
        0.1069716364145279,
        0.07606913894414902,
        0.018227683380246162,
        0.026796482503414154,
        0.12923988699913025,
        0.11678609251976013,
        -0.031755369156599045,
        -0.03606927767395973,
        -0.08280330896377563,
        0.13719682395458221,
        0.006377440877258778,
        -0.2409597784280777,
        0.08799099922180176,
        0.12801970541477203,
        0.10374200344085693,
        0.03448312729597092,
        0.2622198760509491,
        0.3138604164123535,
        -0.24576865136623383,
        -0.5623846650123596,
        -0.2079242467880249,
        -0.2956932485103607,
        0.10564959049224854,
        -0.10770270973443985,
        0.08932680636644363,
        0.11458729952573776,
        -0.005455874837934971,
        -0.5286896824836731,
        0.11600688844919205,
        0.0030305911786854267,
        -0.3458387553691864,
        0.0702686458826065,
        0.4822551906108856,
        0.30173829197883606,
        -0.07738172262907028,
        -0.30916157364845276,
        -0.016267431899905205,
        -0.24103635549545288,
        -0.10339070856571198,
        -0.11483270674943924,
        0.10827942192554474,
        0.030171286314725876,
        0.00018009409541264176,
        0.1261555552482605,
        0.0018161967163905501,
        0.11574460566043854,
        0.02346907928586006,
        0.027291782200336456,
        0.4289351999759674,
        0.17509602010250092,
        0.012485925108194351,
        0.07023756951093674,
        -0.17835474014282227,
        0.1145085021853447,
        -0.039925750344991684,
        0.0004956675111316144,
        -0.28359776735305786,
        -0.018163343891501427,
        0.004759849514812231,
        0.1587917059659958,
        -0.14071908593177795,
        0.2884197235107422,
        -0.39830976724624634,
        -0.11758347600698471,
        0.06735056638717651,
        0.05058429390192032,
        -0.42880988121032715,
        0.10590767115354538,
        0.07920432090759277,
        0.7746772766113281,
        -0.22289125621318817,
        -0.27498355507850647,
        -0.03437712788581848,
        -0.4470652937889099,
        -0.023895200341939926,
        0.8341097831726074,
        0.5443936586380005,
        0.10785622894763947,
        0.06853938102722168,
        0.20935344696044922,
        0.008906127884984016,
        -0.6658169627189636,
        -0.010303567163646221,
        0.059141263365745544,
        -0.19411011040210724,
        0.36777231097221375,
        0.23967432975769043,
        -0.22049382328987122,
        0.0504247285425663,
        0.044629354029893875,
        -0.22698146104812622,
        -0.19752171635627747,
        0.04124608635902405,
        -0.016390260308980942,
        0.3830532133579254,
        0.07752665877342224,
        0.32970258593559265,
        -0.4216424226760864,
        0.08582516759634018,
        0.07352810353040695,
        -0.10708676278591156,
        0.47418832778930664,
        0.13424333930015564,
        0.5420669913291931,
        0.034809865057468414,
        0.008998606353998184,
        0.3631156086921692,
        0.0766483023762703,
        0.003506016917526722,
        0.07576434314250946,
        -0.1316547393798828,
        -0.022707266733050346,
        -0.3692750632762909,
        0.15493792295455933,
        -0.39666566252708435,
        0.057432081550359726,
        -0.027906160801649094,
        0.020896995440125465,
        0.04739619791507721,
        0.4102133810520172,
        -0.13820607960224152,
        0.005768233444541693,
        0.0003886166668962687,
        0.1096499040722847,
        0.46818456053733826,
        -0.6076668500900269,
        -0.5219693183898926,
        0.016328154131770134,
        -0.5300305485725403,
        0.042803965508937836,
        0.1289471685886383,
        -0.11562102288007736,
        -0.03241471201181412,
        0.0010942360386252403,
        0.46478039026260376,
        0.14647136628627777,
        -0.037365496158599854,
        -0.01829354651272297,
        -0.020512808114290237,
        0.49331891536712646,
        -0.5582553744316101,
        -0.053538817912340164,
        -0.01475370954722166,
        -0.5228897333145142,
        0.17711271345615387,
        -0.1708008497953415,
        0.29693737626075745,
        -0.37118420004844666,
        0.4063628911972046,
        -0.20721367001533508,
        0.05348934978246689,
        -0.4426952600479126,
        0.051037710160017014,
        0.012133288197219372,
        0.4060814678668976,
        -0.05919661745429039,
        0.01955438405275345,
        -0.08852258324623108,
        -0.48514819145202637,
        -0.016519654542207718,
        -0.5997448563575745,
        -0.3215232789516449,
        -0.03233190253376961,
        -0.03212907910346985,
        -0.6228530406951904,
        0.4226362407207489,
        -0.08876131474971771,
        -0.05102374777197838,
        0.1920265257358551,
        -0.006327447481453419,
        -0.011663476005196571,
        -0.0067924256436526775,
        -0.06093170866370201,
        -0.009226548485457897,
        -0.017444968223571777,
        -0.040211766958236694,
        0.17927563190460205,
        0.05902406573295593,
        -0.239902064204216,
        0.007295642048120499,
        0.2801719307899475,
        0.009949296712875366,
        0.014033435843884945,
        0.5588546395301819,
        -0.48450320959091187,
        -0.04442411661148071,
        -0.05035613849759102,
        0.03355051577091217,
        -0.06196872517466545,
        -0.32216760516166687,
        0.01831332966685295,
        -0.04041418433189392,
        -0.004487459547817707,
        -0.018201952800154686,
        -0.6856442093849182,
        0.3212890028953552,
        -0.004449023399502039,
        0.17490185797214508,
        0.2519104778766632,
        0.162752166390419,
        -0.06745541095733643,
        -0.47495684027671814,
        -0.06719908863306046,
        -0.48538538813591003,
        0.0895407572388649,
        -0.04908566176891327,
        -0.015023407526314259,
        0.29052862524986267,
        -0.25879213213920593,
        -0.11615099012851715,
        -0.40369436144828796,
        -0.4740176498889923,
        -0.3751210868358612,
        -0.11292807012796402,
        -0.15535947680473328,
        -0.2763764262199402,
        -0.013633891008794308,
        0.02124975062906742,
        0.1485936939716339,
        -0.058052267879247665,
        0.02230146713554859,
        -0.055165473371744156,
        -0.4705997109413147,
        0.035663168877363205,
        -0.06923284381628036,
        -0.5000967383384705,
        0.04784853756427765,
        -0.11754515767097473,
        -0.5049312710762024,
        0.1331157684326172,
        0.03898487985134125,
        0.04957607015967369,
        0.2739824056625366,
        0.024994131177663803,
        0.003145423484966159,
        0.031446877866983414,
        0.027624042704701424,
        0.010008296929299831,
        0.002906987676396966,
        0.056211650371551514,
        0.034972090274095535,
        0.03926941007375717,
        0.020072689279913902,
        0.01609141007065773,
        0.49621012806892395,
        0.020982490852475166,
        0.04667342081665993,
        0.6573390364646912,
        -0.15340666472911835,
        0.02979671023786068,
        0.06367664039134979,
        0.06803756207227707,
        -0.23897355794906616,
        0.1191151887178421,
        -0.42615053057670593,
        0.03398456051945686,
        -0.09439313411712646,
        0.07285328954458237,
        -0.12789659202098846,
        -0.0411735475063324,
        -0.00034602926461957395,
        -0.09455501288175583,
        0.05068378895521164,
        -0.053841833025217056,
        -0.09576689451932907,
        -0.08247439563274384,
        -2.7326299459673464e-05,
        0.14551180601119995,
        -0.18430550396442413,
        0.009395214729011059,
        0.010617445223033428,
        -0.2694926857948303,
        -0.04172064736485481,
        -0.4999188482761383,
        -0.21298566460609436,
        0.10355958342552185,
        -0.3762083947658539,
        -0.14584413170814514,
        -0.5606715083122253,
        -0.5106713175773621,
        0.04158001393079758,
        0.036299195140600204,
        0.28056690096855164,
        -0.14466321468353271,
        0.05673111975193024,
        -0.03217887878417969,
        -0.08490040898323059,
        0.0074520413763821125,
        0.16946516931056976,
        0.0963314101099968,
        -0.06718893349170685,
        0.09130195528268814,
        -0.13322797417640686,
        -0.14435243606567383,
        -0.047321856021881104,
        -0.21291500329971313,
        0.14030155539512634,
        0.022455262020230293,
        -0.21527129411697388,
        0.046701449900865555,
        -0.018043672665953636,
        0.02358308993279934,
        0.07291088998317719,
        0.05438338592648506,
        -0.6086059212684631,
        0.09379322826862335,
        -0.03893599659204483,
        -0.002961000893265009,
        0.16520234942436218,
        0.026337875053286552,
        -0.05232930928468704,
        0.7771345973014832,
        -0.18587803840637207,
        0.0052712722681462765,
        0.0030072128865867853,
        0.049150124192237854,
        0.27940961718559265,
        -0.052288688719272614,
        0.07215064018964767,
        -0.010874811559915543,
        -0.10363517701625824,
        0.06360101699829102,
        0.2584708333015442,
        -0.5016123056411743,
        0.060585398226976395,
        -0.35747185349464417,
        0.015687156468629837,
        0.052196308970451355,
        -0.05972250923514366,
        0.7661446332931519,
        -0.00422624871134758,
        0.32318732142448425,
        -0.5422266721725464,
        0.033893611282110214,
        0.03945407271385193,
        -0.4016141891479492,
        -0.41885995864868164,
        -0.3887042999267578,
        -0.28610172867774963,
        0.22973418235778809,
        -0.4304118752479553,
        -0.0020279798191040754,
        -0.8562093377113342,
        -0.22775447368621826,
        0.035286515951156616,
        0.0013041915372014046,
        0.0371062308549881,
        -0.11891380697488785,
        0.015473808161914349,
        -0.05545508861541748,
        -0.21635638177394867,
        0.0008590514771640301,
        0.11568337678909302,
        0.646478533744812,
        -0.08596640825271606,
        -0.4793284833431244,
        0.30618223547935486,
        -0.10680139064788818,
        -0.09832736849784851,
        -0.5303486585617065,
        0.24175117909908295,
        0.007439649198204279,
        -0.5886919498443604,
        0.02104734443128109,
        -0.037277933210134506,
        -0.0008079917170107365,
        0.0642005205154419,
        0.0008027550647966564,
        -0.4906570017337799,
        0.05057622864842415,
        0.31457069516181946,
        0.01015066634863615,
        1.0124101638793945,
        0.015244337730109692,
        -0.009069470688700676,
        2.3537282943725586,
        0.18247325718402863,
        -0.026390405371785164,
        -0.001989044016227126,
        0.040757279843091965,
        -0.3930211663246155,
        0.36030998826026917,
        -0.002335433615371585,
        -0.09302860498428345,
        0.2764432430267334,
        0.007961146533489227,
        0.7010244131088257,
        -1.0869508981704712,
        0.029769502580165863,
        -1.0486226081848145,
        -0.26517537236213684,
        -0.441298246383667,
        -0.07257307320833206,
        0.9176865220069885,
        -0.045202113687992096,
        0.26156526803970337,
        0.021413853392004967,
        -0.005974004045128822,
        -0.010731958784162998,
        -0.05637172609567642,
        -0.4308434724807739,
        -0.17077508568763733,
        -0.17469549179077148,
        0.32818660140037537,
        -0.05072719603776932,
        0.10278937965631485,
        0.37384310364723206,
        -0.13384950160980225,
        0.06479548662900925,
        0.11108999699354172,
        -0.04212171584367752,
        -0.054569631814956665,
        0.06810683757066727,
        -0.018555184826254845,
        0.36961841583251953,
        -0.004478694871068001,
        0.06767588108778,
        0.10580014437437057,
        0.023259039968252182,
        0.11652540415525436,
        -0.07475969940423965,
        0.16886340081691742,
        -0.08345645666122437,
        0.2417900115251541,
        -0.007156428415328264,
        -0.06652943789958954,
        0.3116951286792755,
        0.11913616210222244,
        -0.08766955137252808,
        0.09533833712339401,
        -0.041504036635160446,
        0.02468576468527317,
        -0.3481152355670929,
        -0.041612666100263596,
        -0.308420330286026,
        0.14895622432231903,
        -0.38404789566993713,
        0.14783816039562225,
        -0.07796281576156616,
        -0.31755897402763367,
        -0.36296752095222473,
        -0.10375671833753586,
        0.07867713272571564,
        0.1902739703655243,
        0.23339100182056427,
        -0.3918270468711853,
        -0.2964862287044525,
        0.06882274150848389,
        -0.11912977695465088,
        -0.008904826827347279,
        0.08046575635671616,
        0.24283510446548462,
        0.14605137705802917,
        0.5565372109413147,
        0.3904246687889099,
        0.23304015398025513,
        -0.03513355553150177,
        0.0941433310508728,
        -0.01297016441822052,
        0.221089705824852,
        -0.3986714482307434,
        0.1705775260925293,
        0.09236055612564087,
        -0.5732239484786987,
        0.3746112287044525,
        -0.16514688730239868,
        0.6207678914070129,
        -0.2523086369037628,
        0.06369015574455261,
        -0.3326057195663452,
        -0.1624772548675537,
        0.774595320224762,
        0.034151431173086166,
        0.014486671425402164,
        -0.010322200134396553,
        -0.07979922741651535,
        0.028995325788855553,
        -0.031366016715765,
        -0.23084291815757751,
        0.0956980437040329,
        0.0063313329592347145,
        -0.07445583492517471,
        0.030605364590883255,
        -0.012083564884960651,
        0.19538356363773346,
        -0.1886482983827591,
        -0.13831762969493866,
        0.05073817819356918,
        0.0746021643280983,
        0.07656252384185791,
        -0.3121594190597534,
        0.026821935549378395,
        0.016207577660679817,
        0.0009566057124175131,
        0.09132722020149231,
        0.05819331854581833,
        0.48172420263290405,
        0.1202489510178566,
        -0.18807701766490936,
        0.03732513263821602,
        -0.16717855632305145,
        0.0074595194309949875,
        -0.0012655549217015505,
        -0.18911203742027283,
        0.6178634762763977,
        0.039707623422145844,
        0.02145129255950451,
        0.05243435129523277,
        -0.24041350185871124,
        -0.2077978551387787,
        0.4190220832824707,
        -0.09885299950838089,
        0.31998154520988464,
        0.05618251860141754,
        -0.2608333230018616,
        -0.02487172745168209,
        0.02375703491270542,
        -0.16693514585494995,
        0.19750376045703888,
        0.1882561296224594,
        -0.06845522671937943,
        -0.5580801367759705,
        -0.03722822293639183,
        -0.11448778957128525,
        0.34107768535614014,
        0.024095430970191956,
        0.006457887124270201,
        0.6230759024620056,
        -0.10560566186904907,
        0.5563784837722778,
        -0.04593871906399727,
        0.022035159170627594,
        -0.050036534667015076,
        0.3776267170906067,
        -0.09003022313117981,
        0.38411378860473633,
        0.03877425193786621,
        -0.029343586415052414,
        -0.2488575279712677,
        0.04434576258063316,
        0.00042730793938972056,
        -0.09964817017316818,
        0.352336049079895,
        -0.059812240302562714,
        0.1449311524629593,
        -0.16062241792678833,
        -0.05446891114115715,
        0.0004595928476192057,
        0.2026916742324829,
        -0.06092177331447601,
        -0.08662160485982895,
        0.2489629089832306,
        0.11508539319038391,
        0.01739736646413803,
        -0.274528443813324,
        -0.008816435933113098,
        -0.039642661809921265,
        -0.045500218868255615,
        0.10275213420391083,
        0.04576596990227699,
        0.3104192912578583,
        0.08730848878622055,
        0.141352578997612,
        -0.08150394260883331,
        -0.2800610363483429,
        -0.04604071006178856,
        0.02523929812014103,
        -0.08619140833616257,
        0.690889835357666,
        -0.027313029393553734,
        -0.0317455530166626,
        -0.01887449063360691,
        -0.3570488393306732,
        -0.28806498646736145,
        0.20911595225334167,
        -0.06435798853635788,
        0.3078784942626953,
        0.04365916922688484,
        0.34828728437423706,
        -0.1992073506116867,
        -0.00833800993859768,
        -0.17898821830749512,
        0.051085371524095535,
        0.11735782027244568,
        -0.09218455106019974,
        -0.16019907593727112,
        -0.06067782640457153,
        0.036686789244413376,
        0.005555164068937302,
        -0.010525217279791832,
        0.01283816248178482,
        -0.010586673393845558,
        0.23425307869911194,
        0.418213427066803,
        0.08931895345449448,
        0.4813176393508911,
        -0.22677941620349884,
        0.617229700088501,
        -0.01954394206404686,
        -0.27152004837989807,
        -0.03444617986679077,
        0.0237259604036808,
        -0.1978072077035904,
        0.11811718344688416,
        0.03499501571059227,
        -0.07614583522081375,
        0.7491689920425415,
        0.010069685988128185,
        0.11306975781917572,
        0.24676665663719177,
        -0.1325247585773468,
        0.16479454934597015,
        0.19766955077648163,
        0.24688513576984406,
        0.08226693421602249,
        0.04756112024188042,
        -0.09362485259771347,
        -0.021612044423818588,
        0.6891956329345703,
        0.004019145388156176,
        -0.010774495080113411,
        -0.022586073726415634,
        -0.042621344327926636,
        0.10035528987646103,
        -0.5761994123458862,
        -0.009253343567252159,
        -0.21097977459430695,
        0.001477353274822235,
        -0.22514092922210693,
        0.0045608095824718475,
        0.0618290938436985,
        -0.1420203000307083,
        -0.10136205703020096,
        0.04032333195209503,
        0.11661689728498459,
        0.025995628908276558,
        0.4210176169872284,
        -0.3542923927307129,
        -0.5314257740974426,
        0.13296349346637726,
        0.07518839836120605,
        0.09339858591556549,
        0.3399251401424408,
        -0.09408653527498245,
        0.005669163074344397,
        -0.09175968915224075,
        0.5681036114692688,
        0.052394621074199677,
        -0.11641381680965424,
        0.4943736493587494,
        0.012122351676225662,
        0.12825694680213928,
        -0.05645938962697983,
        -0.07736437767744064,
        -0.002130514709278941,
        -0.29687726497650146,
        0.33223745226860046,
        -0.0803907960653305,
        -0.1822979599237442,
        -0.28151583671569824,
        0.13528354465961456,
        -0.12396274507045746,
        0.11185141652822495,
        0.058785513043403625,
        -0.01839951053261757,
        -0.034214917570352554,
        -0.025127606466412544,
        0.2641436457633972,
        -0.042851366102695465,
        0.046570755541324615,
        -0.19639667868614197,
        0.06075111776590347,
        -0.5635035037994385,
        -0.6200051307678223,
        -0.19687031209468842,
        -0.2706405818462372,
        -0.3252769112586975,
        -0.42513614892959595,
        -0.04019952937960625,
        0.3941141366958618,
        -0.04631516709923744,
        0.07595818489789963,
        0.1784418225288391,
        0.025903427973389626,
        0.07477494329214096,
        0.02421969547867775,
        0.060312699526548386,
        0.013222397305071354,
        0.31810134649276733,
        0.03936728462576866,
        0.5788408517837524,
        -0.01888241246342659,
        -0.1136961281299591,
        0.026791496202349663,
        -0.013069846667349339,
        0.2849057614803314,
        -0.022618966177105904,
        0.029594263061881065,
        0.10509077459573746,
        0.10518026351928711,
        -0.3237936794757843,
        0.26907914876937866,
        0.08747150748968124,
        -0.12275677919387817,
        -0.15242162346839905,
        0.019386908039450645,
        -0.10043109953403473,
        0.16201981902122498,
        0.028538433834910393,
        -0.0030520253349095583,
        -0.624750018119812,
        -0.5502552390098572,
        0.01030273549258709,
        -0.4749257266521454,
        -0.03337005898356438,
        -0.17500150203704834,
        -0.013661082834005356,
        0.030576778575778008,
        -0.07453598082065582,
        0.11195814609527588,
        0.047077029943466187,
        -0.23507757484912872,
        0.07027081400156021,
        -0.29587358236312866,
        0.13933423161506653,
        0.11733528226613998,
        0.1507187783718109,
        0.12581899762153625,
        0.027810849249362946,
        -0.026347501203417778,
        -0.223979189991951,
        0.4109058976173401,
        0.013704435899853706,
        -0.06184371933341026,
        0.27972427010536194,
        -0.03869139030575752,
        -0.18328697979450226,
        -0.529718279838562,
        -0.0933225229382515,
        0.20340852439403534,
        -0.04692257568240166,
        -0.20962852239608765,
        0.04477572441101074,
        0.4422391951084137,
        -0.09261150658130646,
        -0.006991304457187653,
        -0.06573107093572617,
        0.03396822512149811,
        -0.05484344810247421,
        0.017157400026917458,
        0.014059173874557018,
        0.05398041382431984,
        0.16540612280368805,
        0.04805056005716324,
        0.27082717418670654,
        -0.03071204014122486,
        0.10126933455467224,
        0.008439200930297375,
        -0.011325454339385033,
        0.19763553142547607,
        -0.06195463985204697,
        0.014628273434937,
        0.041877154260873795,
        0.04365105554461479,
        0.20296825468540192,
        0.1652897596359253,
        -0.18016308546066284,
        0.11870406568050385,
        -0.2577073276042938,
        0.03398831561207771,
        0.10380714386701584,
        0.5278467535972595,
        0.040083181113004684,
        0.07038207352161407,
        -0.27494803071022034,
        0.0509968139231205,
        -0.13731148838996887,
        -0.5643020868301392,
        -0.047425128519535065,
        -0.26782798767089844,
        -0.48451581597328186,
        0.027881337329745293,
        -0.006576944142580032,
        -0.5358633399009705,
        -0.11161890625953674,
        0.03407752513885498,
        0.3616786599159241,
        -0.11713826656341553,
        -0.24254606664180756,
        -0.1023995578289032,
        -0.41786399483680725,
        -0.9686906933784485,
        0.05194889008998871,
        0.030584421008825302,
        0.31414392590522766,
        -0.2626970410346985,
        0.05227021127939224,
        -0.06502730399370193,
        -0.028742428869009018,
        0.017812639474868774,
        -0.5523681044578552,
        0.07232493162155151,
        0.05845627188682556,
        0.07270579040050507,
        -0.7415306568145752,
        0.06894062459468842,
        -0.08267809450626373,
        -0.598714292049408,
        0.07455562800168991,
        0.06640710681676865,
        -0.1952579915523529,
        0.04514302685856819,
        -0.02576138637959957,
        0.015133177861571312,
        -0.057857953011989594,
        0.036975886672735214,
        -0.6984226107597351,
        0.10641846060752869,
        0.2605162262916565,
        -0.005095715634524822,
        0.4366775155067444,
        0.008924960158765316,
        -0.02356242947280407,
        0.9895461201667786,
        -0.4422570466995239,
        -0.015153447166085243,
        -0.016745584085583687,
        0.04608149826526642,
        -0.08346065133810043,
        0.2395830601453781,
        0.27359476685523987,
        -0.06545785814523697,
        -0.08963266015052795,
        0.03177572041749954,
        0.05566021054983139,
        -0.6345323920249939,
        0.04077323153614998,
        -0.5290873050689697,
        -0.3910447657108307,
        -0.06714377552270889,
        -0.09577497094869614,
        0.40358585119247437,
        -0.06529279798269272,
        0.029134007170796394,
        -0.18511658906936646,
        0.033998120576143265,
        0.0428139865398407,
        0.007324259728193283,
        -0.2678053379058838,
        -0.019479747861623764,
        -0.4792897701263428,
        -0.5656217932701111,
        0.16231317818164825,
        0.33892062306404114,
        -0.2519844174385071,
        1.290456771850586,
        0.04851549118757248,
        0.05906961113214493,
        -0.2637287974357605,
        0.5009621977806091,
        0.059218864887952805,
        -0.03339318186044693,
        0.4043651223182678,
        0.046447038650512695,
        0.5909681916236877,
        -0.8251563906669617,
        -0.10592050105333328,
        0.19115643203258514,
        0.30704328417778015,
        0.19674940407276154,
        -0.06262502819299698,
        0.9828076958656311,
        0.11609606444835663,
        0.021275827661156654,
        -0.7463276982307434,
        0.04848494753241539,
        -0.022552896291017532,
        0.03344715014100075,
        -0.002923491643741727,
        0.012607798911631107,
        0.16924956440925598,
        0.04760975018143654,
        -0.5271554589271545,
        0.07039815932512283,
        -0.42701455950737,
        0.042860664427280426,
        -0.06079458072781563,
        -0.2567117214202881,
        1.2307645082473755,
        -0.01274921465665102,
        0.015584214590489864,
        0.0918237566947937,
        0.04760461673140526,
        -0.4329218864440918,
        -0.305103600025177,
        0.046511776745319366,
        -0.16219471395015717,
        0.010303650982677937,
        0.5948501229286194,
        -0.05201559141278267,
        0.05361442640423775,
        -0.44901785254478455,
        0.5325260758399963,
        0.19785459339618683,
        -0.05120500177145004,
        -0.21526369452476501,
        -0.04272592440247536,
        0.023866793140769005,
        -0.36074861884117126,
        0.044179994612932205,
        0.020889887586236,
        -0.25577303767204285,
        -0.317337304353714,
        0.5520276427268982,
        0.28178614377975464,
        -0.21573808789253235,
        -0.09205959737300873,
        0.25418081879615784,
        0.24990785121917725,
        0.5416064262390137,
        0.0006195315509103239,
        -0.06358908861875534,
        -0.20681621134281158,
        -0.07660795003175735,
        -0.025467123836278915,
        -0.07692760974168777,
        0.633728563785553,
        -0.09099818021059036,
        0.7233981490135193,
        0.5618873834609985,
        -0.07238376140594482,
        -0.03610248118638992,
        0.667366087436676,
        -0.019603196531534195,
        -0.04933946579694748,
        0.13714216649532318,
        0.03839863836765289,
        0.04019022732973099,
        0.0943094938993454,
        -0.042428385466337204,
        -0.019585253670811653,
        -0.06768600642681122,
        -0.09504740685224533,
        -0.0017539460677653551,
        0.007276991382241249,
        0.0064729261212050915,
        0.03745274618268013,
        -0.12097041308879852,
        -0.246370330452919,
        -0.06290823221206665,
        -0.01085459440946579,
        -0.25056734681129456,
        0.5969207882881165,
        0.002503539901226759,
        0.004768026527017355,
        -0.06385496258735657,
        -0.07870376855134964,
        0.29660382866859436,
        -0.2756623923778534,
        -0.02630138024687767,
        0.17683906853199005,
        -0.006613838952034712,
        0.1170743778347969,
        -0.057237595319747925,
        -0.011209228076040745,
        0.5839028358459473,
        -0.02226157672703266,
        0.12705408036708832,
        -0.054602835327386856,
        -0.1427377164363861,
        -0.07797243446111679,
        0.5017088055610657,
        0.26595354080200195,
        -0.06419757008552551,
        -0.05099852383136749,
        0.33770355582237244,
        0.006454383488744497,
        0.17539967596530914,
        -0.27285364270210266,
        0.3324930965900421,
        -0.14823418855667114,
        0.43472418189048767,
        -0.1607714742422104,
        0.04327099025249481,
        0.025441262871026993,
        -0.014780839905142784,
        0.07141274958848953,
        0.2201845347881317,
        0.0216832235455513,
        -0.07317519187927246,
        0.6481257677078247,
        -0.04096332564949989,
        0.610329806804657,
        0.028738539665937424,
        0.17235411703586578,
        0.5176503658294678,
        0.3926147222518921,
        0.5062731504440308,
        -0.03481154888868332,
        0.020588956773281097,
        0.14935286343097687,
        0.025264393538236618,
        -0.05385660380125046,
        0.005821750964969397,
        -0.07746172696352005,
        -0.027372686192393303,
        -0.23139527440071106,
        0.065485879778862,
        -0.9799641966819763,
        -0.02944919839501381,
        -0.43571925163269043,
        -0.07494387775659561,
        0.41755276918411255,
        -0.057639751583337784,
        -0.0677463710308075,
        -0.5376378297805786,
        0.4138413965702057,
        0.00018548229127191007,
        -0.05009105056524277,
        -0.038518451154232025,
        0.5941897630691528,
        -0.8703653812408447,
        -0.5833534598350525,
        -0.012252787128090858,
        -0.3608584702014923,
        0.03338271379470825,
        0.8728848099708557,
        -0.1267573982477188,
        0.07999686896800995,
        -0.5384324789047241,
        0.7203607559204102,
        0.3265138268470764,
        -0.09418743848800659,
        0.5582302808761597,
        -0.05594823881983757,
        0.3795889616012573,
        -0.3557041585445404,
        0.0346902459859848,
        0.03788530081510544,
        -0.6304503679275513,
        -0.2016599476337433,
        0.27605751156806946,
        0.49093008041381836,
        -0.0741313025355339,
        -0.059372082352638245,
        0.025443393737077713,
        0.3206908702850342,
        -0.3137783408164978,
        -0.07650323212146759,
        -0.13282066583633423,
        0.19681350886821747,
        -0.15571372210979462,
        -0.07671639323234558,
        0.012906202115118504,
        0.17027495801448822,
        0.14356103539466858,
        -0.13091380894184113,
        -0.009703644551336765,
        -0.11987187713384628,
        -0.08623351901769638,
        0.057352084666490555,
        -0.21718451380729675,
        0.04444323480129242,
        0.2391708642244339,
        0.11911918967962265,
        0.06214763596653938,
        0.16655339300632477,
        -0.052976515144109726,
        0.09062188118696213,
        -0.050474971532821655,
        0.1878167688846588,
        0.03397056460380554,
        -0.1900552213191986,
        -0.010846538469195366,
        -0.30368927121162415,
        -0.019217705354094505,
        0.0812872126698494,
        -0.07111750543117523,
        0.0016669892938807607,
        0.3425663411617279,
        -0.23123155534267426,
        0.20701153576374054,
        0.08384495228528976,
        -0.029463039711117744,
        -0.13998912274837494,
        -0.03229627013206482,
        -0.17479710280895233,
        0.05464189872145653,
        -0.09424332529306412,
        0.05857335031032562,
        -0.17929647862911224,
        0.04386979714035988,
        -0.02643275447189808,
        0.1628674864768982,
        0.051829054951667786,
        -0.05722229927778244,
        -0.054101333022117615,
        -0.07724356651306152,
        -0.007977812550961971,
        0.24428719282150269,
        -0.11303319036960602,
        -0.09696082770824432,
        -0.13741667568683624,
        -0.40320247411727905,
        0.1104610413312912,
        0.15375539660453796,
        0.14130043983459473,
        -0.17146985232830048,
        0.049759555608034134,
        -0.27008190751075745,
        -0.1484745740890503,
        0.03962536156177521,
        0.04208330065011978,
        0.14466723799705505,
        -0.10938523709774017,
        -0.0430540107190609,
        0.13914552330970764,
        0.0058645945973694324,
        -0.18827031552791595,
        -0.04867109656333923,
        -0.16780905425548553,
        0.36520013213157654,
        0.15041717886924744,
        0.1306145191192627,
        -0.027697354555130005,
        -0.2827751934528351,
        -0.0796310156583786,
        -0.3433881998062134,
        -0.10226088017225266,
        0.01604423299431801,
        -0.3714306354522705,
        0.10825058817863464,
        -0.008371556177735329,
        0.09835274517536163,
        -0.036112572997808456,
        0.10570154339075089,
        0.021369049325585365,
        0.0492255724966526,
        0.06735573709011078,
        0.06264034658670425,
        0.181795135140419,
        0.1262717992067337,
        0.02128583937883377,
        0.4313175082206726,
        -0.01645420491695404,
        -0.03160388022661209,
        0.06602534651756287,
        0.13220350444316864,
        -0.27603790163993835,
        0.06329789012670517,
        0.2117471843957901,
        0.034660704433918,
        0.08470333367586136,
        0.09658338874578476,
        -0.054549530148506165,
        -0.0327879972755909,
        0.1417475789785385,
        -0.09886583685874939,
        -0.21189944446086884,
        -0.1779288351535797,
        -0.09893247485160828,
        -0.06640059500932693,
        0.029496261849999428,
        0.054138895124197006,
        0.30203279852867126,
        0.12608401477336884,
        0.14129343628883362,
        0.08560503274202347,
        -0.4487304389476776,
        -0.06391355395317078,
        -0.18558944761753082,
        -0.22187933325767517,
        -0.0322662815451622,
        -0.32988324761390686,
        -0.09317762404680252,
        0.2922479808330536,
        -0.04255660995841026,
        -0.008261950686573982,
        0.015435008332133293,
        0.16472764313220978,
        -0.0011025870917364955,
        0.04620179533958435,
        -0.052236296236515045,
        0.10053201019763947,
        0.23126262426376343,
        -0.023675596341490746,
        -0.03175730258226395,
        -0.38180238008499146,
        0.1499129831790924,
        0.04969679191708565,
        0.07201278954744339,
        -0.061782464385032654,
        -0.05352437123656273,
        0.0801229327917099,
        -0.2647543251514435,
        0.07149919122457504,
        0.09593154489994049,
        0.0659523606300354,
        0.15768353641033173,
        0.05544585734605789,
        0.21853120625019073,
        0.03080887161195278,
        0.059909261763095856,
        0.04654231294989586,
        -0.021390076726675034,
        0.040392860770225525,
        -0.019107619300484657,
        0.14706222712993622,
        0.25002825260162354,
        0.13023976981639862,
        0.10281282663345337,
        0.10029895603656769,
        -0.24285069108009338,
        0.19086405634880066,
        0.016438324004411697,
        0.00014208792708814144,
        -0.1347159892320633,
        0.07641830295324326,
        0.050921764224767685,
        -0.0032274506520479918,
        0.07029880583286285,
        -0.05290694907307625,
        -0.056821309030056,
        -0.24618962407112122,
        -0.025206604972481728,
        0.139901801943779,
        0.02986106090247631,
        0.20648016035556793,
        -0.06662462651729584,
        0.0342072993516922,
        -0.019339516758918762,
        -0.13213825225830078,
        -0.10135158151388168,
        -0.3476453423500061,
        0.0755552351474762,
        -0.7478537559509277,
        -0.22308772802352905,
        -0.28899556398391724,
        -0.5547013282775879,
        -0.09471069276332855,
        -0.014818133786320686,
        0.079316645860672,
        0.16089551150798798,
        0.24411815404891968,
        0.0634051263332367,
        -0.03372398763895035,
        -0.398416131734848,
        0.03352108970284462,
        0.31973209977149963,
        -0.48473596572875977,
        0.12302469462156296,
        0.08209671080112457,
        -0.10073547810316086,
        0.6062430739402771,
        0.15239973366260529,
        0.021350525319576263,
        -0.03739652782678604,
        0.01373242400586605,
        -0.07650099694728851,
        0.09208904206752777,
        0.02545679546892643,
        0.06510473787784576,
        -0.013177716173231602,
        0.07383178919553757,
        -0.5904733538627625,
        0.0011107214959338307,
        -0.07062067836523056,
        0.09866787493228912,
        0.03157470375299454,
        0.06978422403335571,
        0.059476807713508606,
        1.0567612648010254,
        -0.3272138833999634,
        0.024749957025051117,
        0.10037199407815933,
        0.13644681870937347,
        0.21813763678073883,
        -0.1225585862994194,
        -0.4386739432811737,
        0.0930095762014389,
        -0.5373936891555786,
        0.10265286266803741,
        -0.1429511308670044,
        0.2179429829120636,
        0.04743095114827156,
        0.1992894560098648,
        0.1611846536397934,
        0.15063796937465668,
        -0.06848824769258499,
        0.2981153428554535,
        0.008556270971894264,
        -0.0803314819931984,
        -0.8830925226211548,
        0.03969908133149147,
        0.03014247678220272,
        -0.7895739674568176,
        -0.4750513434410095,
        0.7496563792228699,
        0.5057340264320374,
        -0.5156508088111877,
        0.2416820526123047,
        -0.33175212144851685,
        -0.1095239669084549,
        0.461858332157135,
        -0.014863932505249977,
        -0.06692326813936234,
        0.2130507081747055,
        0.0050335293635725975,
        -0.011207854375243187,
        -0.046753205358982086,
        -0.11459746211767197,
        -0.3176230490207672,
        -0.2534520626068115,
        -0.04859159141778946,
        -0.21185000240802765,
        -0.40608474612236023,
        -0.26319968700408936,
        -0.20276129245758057,
        0.053173989057540894,
        -0.14010851085186005,
        0.037537287920713425,
        0.08461441844701767,
        -0.3200424015522003,
        0.03639422357082367,
        -0.020429745316505432,
        -0.031689297407865524,
        -0.0036194047424942255,
        0.01565304771065712,
        0.21933545172214508,
        -0.15229502320289612,
        0.8722478747367859,
        -0.19939742982387543,
        0.042927514761686325,
        -0.02576211467385292,
        -0.018474241718649864,
        -0.6486794948577881,
        0.021155068650841713,
        -0.0736352875828743,
        0.01157098263502121,
        -0.04541407525539398,
        -0.42536112666130066,
        0.6551093459129333,
        0.2708297669887543,
        0.054519835859537125,
        0.2092646360397339,
        -0.0065587847493588924,
        -0.21253429353237152,
        -0.04524298012256622,
        0.07021491229534149,
        0.020570185035467148,
        -0.7957642078399658,
        -0.20614194869995117,
        -0.05013987794518471,
        -0.4230457842350006,
        -0.08873694390058517,
        -0.34217238426208496,
        -0.18060745298862457,
        -0.015274292789399624,
        -0.08891086280345917,
        0.3687278628349304,
        -0.1639222800731659,
        0.259088397026062,
        -0.24219408631324768,
        0.04781423881649971,
        -0.289402574300766,
        -0.08893246948719025,
        -0.441953182220459,
        -0.16522851586341858,
        0.034830205142498016,
        -0.009468331933021545,
        -0.8249021768569946,
        -0.48106300830841064,
        0.005044898018240929,
        -0.0986248180270195,
        -0.5366911292076111,
        0.03282257542014122,
        -0.42598530650138855,
        -0.2984483540058136,
        0.1912516951560974,
        -0.14266856014728546,
        -0.7048050165176392,
        -0.008813755586743355,
        -0.02554086036980152,
        -0.08234964311122894,
        0.0929236114025116,
        0.030726686120033264,
        -0.18828065693378448,
        0.01938326470553875,
        -0.023312876001000404,
        -0.01723584719002247,
        0.057503871619701385,
        -0.02915072999894619,
        0.20692244172096252,
        0.08153091371059418,
        -0.2044830322265625,
        0.01763063296675682,
        0.39149296283721924,
        -0.00500983651727438,
        0.04187546670436859,
        0.6229553818702698,
        0.04835960641503334,
        -0.04013941064476967,
        -0.04122614115476608,
        0.03853222355246544,
        -0.3947184085845947,
        -0.0561506412923336,
        -0.23003071546554565,
        -0.08907170593738556,
        0.08503232151269913,
        -0.008449959568679333,
        -0.240071639418602,
        -0.13930462300777435,
        -0.033931322395801544,
        -0.007874046452343464,
        0.0884796530008316,
        0.08906935900449753,
        -0.06230149418115616,
        -0.3838537335395813,
        -0.09153653681278229,
        0.04379156976938248,
        0.16532257199287415,
        -0.016480617225170135,
        -0.010426130145788193,
        0.4131659269332886,
        -0.28618112206459045,
        -0.05056061968207359,
        -0.21487478911876678,
        0.09494533389806747,
        0.34885942935943604,
        -0.29874762892723083,
        0.3586605191230774,
        -0.38859373331069946,
        0.03356635570526123,
        0.041556380689144135,
        0.08428726345300674,
        0.25574198365211487,
        0.05401526391506195,
        -0.0727403536438942,
        -0.4468681216239929,
        0.05680544301867485,
        -0.461937814950943,
        -0.33710068464279175,
        0.11177793890237808,
        0.4592580199241638,
        -0.024012340232729912,
        0.07481542229652405,
        0.024975769221782684,
        -0.19793328642845154,
        0.15172003209590912,
        0.015414441004395485,
        -0.00577356293797493,
        0.030912471935153008,
        -0.05689840018749237,
        -0.0014306016964837909,
        -0.114047110080719,
        0.08490705490112305,
        -0.14080721139907837,
        0.04360556975007057,
        -0.3427843749523163,
        0.038911037147045135,
        0.2914767563343048,
        -0.014740667305886745,
        -0.0017379901837557554,
        0.7536879181861877,
        -0.29033663868904114,
        -0.009884881787002087,
        -0.011818831786513329,
        0.034838251769542694,
        -0.007297798525542021,
        -0.06536410003900528,
        0.09366953372955322,
        0.08017779141664505,
        -0.06544192880392075,
        0.07064511626958847,
        -0.15575522184371948,
        0.16556856036186218,
        0.046079035848379135,
        -0.0737789124250412,
        -0.19089549779891968,
        0.1251523494720459,
        -0.09945643693208694,
        -0.12113762646913528,
        -0.007632057182490826,
        -0.2155921906232834,
        -0.08410516381263733,
        0.02379341796040535,
        0.0648215115070343,
        -0.13858243823051453,
        -0.011154280975461006,
        0.16435971856117249,
        0.359103262424469,
        -0.435921311378479,
        0.2379951924085617,
        -0.35730740427970886,
        -0.1947251856327057,
        -0.011161457747220993,
        0.0013346484629437327,
        -0.012272614054381847,
        0.22387976944446564,
        0.2130388766527176,
        -0.001313822460360825,
        -0.04521525278687477,
        -0.26437148451805115,
        -0.07911034673452377,
        -0.030824484303593636,
        -0.28886061906814575,
        -0.21823741495609283,
        -0.46546459197998047,
        -0.21489417552947998,
        -0.7515899538993835,
        -0.013896026648581028,
        0.03235788643360138,
        0.18544897437095642,
        -0.023014821112155914,
        0.03959273546934128,
        -0.004439310170710087,
        -0.047295987606048584,
        -0.005525656510144472,
        -0.04970536381006241,
        -0.017122428864240646,
        -0.16511043906211853,
        -0.01802719756960869,
        0.5603912472724915,
        -0.04065755009651184,
        -0.06486448645591736,
        0.011489319615066051,
        -0.031677424907684326,
        0.40062999725341797,
        -0.1338844746351242,
        -0.0333218015730381,
        0.025775760412216187,
        0.03409048169851303,
        -0.35970988869667053,
        0.7692367434501648,
        -0.08446544408798218,
        0.055934030562639236,
        -0.15844880044460297,
        -0.016161078587174416,
        -0.23547233641147614,
        0.27880415320396423,
        0.023227592930197716,
        0.16321112215518951,
        -0.8339204788208008,
        -0.353288859128952,
        -0.04182664304971695,
        -0.08546525239944458,
        -0.057739872485399246,
        -0.20731225609779358,
        -0.24014423787593842,
        -0.035209640860557556,
        -0.04493732750415802,
        -0.12560558319091797,
        -0.15332216024398804,
        0.2889658808708191,
        -0.1520490199327469,
        -0.24676044285297394,
        -0.47676289081573486,
        -0.3619993329048157,
        0.37862226366996765,
        -0.6995116472244263,
        -0.05261955037713051,
        -0.08248796314001083,
        0.17008501291275024,
        -0.9262774586677551,
        -0.09996402263641357,
        -0.04928366839885712,
        -0.060786135494709015,
        -0.05437447875738144,
        0.7009367346763611,
        0.8349169492721558,
        -0.01844426617026329,
        0.005540786311030388,
        0.3139286935329437,
        -0.08243328332901001,
        0.023506248369812965,
        -0.13126133382320404,
        -0.24221743643283844,
        -0.020214291289448738,
        0.987064778804779,
        -0.05193471908569336,
        -0.03764437884092331,
        -0.06274097412824631,
        -0.05800272151827812,
        -0.052869901061058044,
        -0.01877986267209053,
        -0.06930828839540482,
        0.15538907051086426,
        -0.04991012066602707,
        0.07772200554609299,
        -0.058112818747758865,
        -0.022856151685118675,
        -0.05643285810947418,
        -0.5956959128379822,
        -0.03154045343399048,
        0.05808062106370926,
        0.0016881413757801056,
        0.12713825702667236,
        0.21261541545391083,
        -0.6016797423362732,
        0.10444168746471405,
        -0.16059938073158264,
        -0.05470407381653786,
        -0.5711458325386047,
        -0.03050602413713932,
        -0.024360695853829384,
        1.0985116958618164,
        -0.15266884863376617,
        0.1174716055393219,
        0.005999840795993805,
        0.28265079855918884,
        -0.06571768969297409,
        1.162157654762268,
        0.23186342418193817,
        -0.07778245210647583,
        -0.09223208576440811,
        0.09727980196475983,
        0.2930586636066437,
        0.11746029555797577,
        0.11862719804048538,
        0.13268831372261047,
        0.37121790647506714,
        0.029665494337677956,
        0.24398301541805267,
        0.0011343318037688732,
        0.03469834849238396,
        0.03711544722318649,
        -0.27429211139678955,
        0.26802822947502136,
        0.0442633293569088,
        0.0020047740545123816,
        0.2254943549633026,
        0.00807876791805029,
        -0.05070270225405693,
        0.05348830670118332,
        -0.11823636293411255,
        -0.07942049950361252,
        0.24547621607780457,
        -0.0774829313158989,
        -0.007456950377672911,
        -0.02990449033677578,
        0.15138213336467743,
        0.009631973691284657,
        0.2720237672328949,
        0.05881258472800255,
        -0.008034062571823597,
        0.05324918404221535,
        -0.08883809298276901,
        -0.015789100900292397,
        0.09191829711198807,
        0.028583338484168053,
        -0.03620243817567825,
        0.03344283625483513,
        -0.09061963856220245,
        0.06408058106899261,
        -0.040423355996608734,
        0.39584699273109436,
        0.06370122730731964,
        -0.0022235375363379717,
        -0.0009236946934834123,
        0.08959852904081345,
        0.06974374502897263,
        -0.08087453991174698,
        0.10514385998249054,
        0.020779144018888474,
        0.07644812762737274,
        0.0019237094093114138,
        -0.07397449016571045,
        0.12937940657138824,
        0.05747942253947258,
        0.004150188993662596,
        0.11405368149280548,
        0.0012194468872621655,
        -0.029335957020521164,
        -0.2853507101535797,
        -0.03784208372235298,
        0.11217162013053894,
        0.06849883496761322,
        0.05086559057235718,
        -0.016420219093561172,
        0.2791261374950409,
        0.4728139340877533,
        0.0503077395260334,
        -0.2392096072435379,
        -0.01344097126275301,
        0.14762815833091736,
        -0.3354015350341797,
        0.013968037441372871,
        0.1800733208656311,
        0.03965306654572487,
        0.022520625963807106,
        0.020318415015935898,
        -0.08821720629930496,
        0.02625534124672413,
        0.004517815075814724,
        -0.16636532545089722,
        -0.04291417449712753,
        -0.08700557053089142,
        -0.07790765911340714,
        0.04046172276139259,
        0.13981564342975616,
        -0.0857887789607048,
        -0.10155989974737167,
        -0.022561412304639816,
        0.09190003573894501,
        0.14513301849365234,
        0.05111333355307579,
        -0.15886706113815308,
        0.06932594627141953,
        0.029670581221580505,
        0.044462524354457855,
        0.17310664057731628,
        0.05077905207872391,
        0.49334588646888733,
        0.08789889514446259,
        0.20428647100925446,
        -0.03568105772137642,
        -0.08879140764474869,
        0.05072709918022156,
        0.008745593018829823,
        -0.10087110847234726,
        0.0009934044210240245,
        -0.03241502121090889,
        0.022264504805207253,
        0.09102693945169449,
        -0.3094562590122223,
        0.39916008710861206,
        0.2763230502605438,
        -0.08546703308820724,
        0.16265957057476044,
        0.0608285591006279,
        -0.09924820810556412,
        0.368817538022995,
        0.057202719151973724,
        -0.20966219902038574,
        -0.460879921913147,
        0.1316860020160675,
        -0.0017611304065212607,
        -0.39023229479789734,
        -0.022686701267957687,
        -0.12008772045373917,
        0.21071478724479675,
        0.06401579082012177,
        0.019371388480067253,
        0.2925897538661957,
        -0.23015139997005463,
        0.03699016943573952,
        -0.05472050979733467,
        0.028700342401862144,
        0.05941062420606613,
        -0.4450277090072632,
        0.2679769694805145,
        -0.5816972255706787,
        -0.11860265582799911,
        -0.016649501398205757,
        0.4878482222557068,
        -0.19088925421237946,
        -0.020916519686579704,
        -0.053164295852184296,
        -0.5684859156608582,
        -0.08370690792798996,
        -0.3558417558670044,
        -0.6268270611763,
        0.23774375021457672,
        0.8345422148704529,
        -0.43723276257514954,
        0.5300108790397644,
        0.05833412706851959,
        -0.14179666340351105,
        -0.03939424455165863,
        0.06274554133415222,
        0.6276718378067017,
        0.01693594455718994,
        0.018592989072203636,
        -0.006229504011571407,
        -0.3237060010433197,
        -0.052097734063863754,
        -0.5661751627922058,
        -0.160374253988266,
        -0.2446986585855484,
        -0.02783258445560932,
        -0.10713768005371094,
        -0.012446080334484577,
        0.008917486295104027,
        0.9221946001052856,
        -0.6098769307136536,
        -0.00912685226649046,
        0.023143311962485313,
        0.002375558018684387,
        0.5452848076820374,
        -0.14342589676380157,
        -0.23041413724422455,
        0.09610891342163086,
        -0.422624409198761,
        -0.04150700569152832,
        -0.4195234179496765,
        0.46455395221710205,
        0.03295405954122543,
        0.32060006260871887,
        0.3426652252674103,
        0.48356369137763977,
        -0.004821081645786762,
        -0.0009761856636032462,
        -0.07684575021266937,
        -0.5262717604637146,
        -0.571904182434082,
        -0.019396834075450897,
        -0.040878500789403915,
        -0.3517874777317047,
        -0.18271222710609436,
        0.8852658867835999,
        0.7620948553085327,
        -0.21901322901248932,
        0.05874055624008179,
        -0.2073613852262497,
        -0.09656036645174026,
        0.2590087354183197,
        0.037111587822437286,
        0.16537918150424957,
        -0.08433899283409119,
        0.011943829245865345,
        0.16519756615161896,
        -0.08656445145606995,
        -0.31955957412719727,
        0.010112441144883633,
        -0.29914093017578125,
        -0.1996031552553177,
        0.36571407318115234,
        -0.30799442529678345,
        -0.021290171891450882,
        0.010306165553629398,
        0.005753060337156057,
        -0.40610718727111816,
        0.07085495442152023,
        0.01799680106341839,
        -0.3119475245475769,
        0.1626897156238556,
        -0.07013875246047974,
        0.08365598320960999,
        0.0516757033765316,
        0.08012702316045761,
        -0.007075695786625147,
        0.057021986693143845,
        -0.21701067686080933,
        0.16744598746299744,
        0.4645644426345825,
        0.07929039001464844,
        -0.01879974827170372,
        0.33389002084732056,
        0.1288638859987259,
        -0.03647414222359657,
        0.05094856768846512,
        0.10564829409122467,
        0.056664854288101196,
        -0.09506604820489883,
        0.15617457032203674,
        0.015684055164456367,
        0.14688268303871155,
        0.07021486014127731,
        0.0006164335063658655,
        -0.29775816202163696,
        0.10154633969068527,
        -0.14763034880161285,
        0.17609021067619324,
        0.1355215460062027,
        -0.13534320890903473,
        0.11592048406600952,
        -0.054030001163482666,
        -0.08406677097082138,
        0.006571787875145674,
        0.09411079436540604,
        0.1584736853837967,
        0.11630380153656006,
        -0.07520905137062073,
        0.033754218369722366,
        -0.07009276002645493,
        1.1391254663467407,
        0.11487310379743576,
        1.6148163080215454,
        0.6921425461769104,
        -0.34077978134155273,
        0.05672888457775116,
        0.047289323061704636,
        -0.46356138586997986,
        0.10340399295091629,
        0.06368634849786758,
        -0.051228951662778854,
        1.0179206132888794,
        -0.03384046629071236,
        -0.44038668274879456,
        -0.2926563322544098,
        -0.04348886385560036,
        -0.32472214102745056,
        -0.3701620399951935,
        -0.2394387573003769,
        -0.10362586379051208,
        0.8041138648986816,
        0.050642646849155426,
        0.041171468794345856,
        0.6402685046195984,
        0.04978856444358826,
        -0.006617194041609764,
        0.013447134755551815,
        -0.023319900035858154,
        0.04270486161112785,
        0.08423252403736115,
        0.09001649916172028,
        0.10515955835580826,
        -0.01610235683619976,
        -0.382607638835907,
        0.026927949860692024,
        -0.01724928431212902,
        0.584739089012146,
        -0.10171584784984589,
        -0.035029537975788116,
        -0.02696577087044716,
        0.035710811614990234,
        -0.0970073789358139,
        -0.05134323611855507,
        -0.18367809057235718,
        -0.06630805879831314,
        0.0967584028840065,
        0.06107340753078461,
        0.32125842571258545,
        -0.05489639192819595,
        0.04183724895119667,
        0.14553794264793396,
        -0.08004491776227951,
        -0.20129576325416565,
        -0.09094277024269104,
        -0.16345128417015076,
        0.0074920980259776115,
        0.1895482987165451,
        0.5579557418823242,
        0.025085661560297012,
        0.028678910806775093,
        -0.17521382868289948,
        1.3257596492767334,
        0.4478655755519867,
        0.22348205745220184,
        0.10393872112035751,
        0.7024128437042236,
        -0.33708858489990234,
        0.23792122304439545,
        0.013180190697312355,
        0.011985884048044682,
        -0.009608108550310135,
        1.0550044775009155,
        0.7956123948097229,
        -0.001966519746929407,
        -0.04633697122335434,
        -0.05959170684218407,
        0.03978054225444794,
        -0.10685563087463379,
        0.40309128165245056,
        -0.009979894384741783,
        0.07720987498760223,
        0.6573722958564758,
        -0.025275563821196556,
        -0.021383626386523247,
        -0.3239358067512512,
        -0.035484567284584045,
        0.05079919099807739,
        0.04247831180691719,
        0.022653799504041672,
        0.001623840071260929,
        -0.001679853885434568,
        0.007966423407196999,
        -0.0002551793586462736,
        0.027225801721215248,
        0.05776968225836754,
        -0.07360891252756119,
        0.01344971638172865,
        -0.3487047851085663,
        0.003371983300894499,
        0.01219126209616661,
        0.09223780035972595,
        -0.07733821123838425,
        -0.0029302823822945356,
        0.0057686385698616505,
        0.059303224086761475,
        -0.03199046850204468,
        -0.27626484632492065,
        1.1179007291793823,
        -0.08097664266824722,
        0.1530543863773346,
        0.014241856522858143,
        -0.27592554688453674,
        0.8796327710151672,
        0.002800361253321171,
        0.0529574416577816,
        0.151780903339386,
        0.03023516945540905,
        -0.05485990270972252,
        -0.1231769546866417,
        -0.073265939950943,
        -0.9059123992919922,
        0.3519183397293091,
        -0.0004704520106315613,
        -0.0232984758913517,
        0.20213110744953156,
        -0.12703917920589447,
        0.31912729144096375,
        0.5537680983543396,
        -0.17863789200782776,
        -0.0743313878774643,
        -0.38569003343582153,
        0.3046881854534149,
        -0.8758789896965027,
        0.12725143134593964,
        0.03174913674592972,
        0.260307252407074,
        -0.3414108157157898,
        0.047682762145996094,
        -0.07629100233316422,
        -0.44419804215431213,
        0.004200253635644913,
        -0.26718470454216003,
        0.17347779870033264,
        -0.18524955213069916,
        -0.19724860787391663,
        -0.0335145927965641,
        -0.4693177044391632,
        -0.19603170454502106,
        -0.2953333258628845,
        0.10293567180633545,
        0.01900097168982029,
        0.7375673651695251,
        0.015003408305346966,
        -0.07843821495771408,
        -0.024883082136511803,
        0.16436663269996643,
        0.04391482099890709,
        -0.3492278456687927,
        0.14329436421394348,
        0.0013026006054133177,
        0.002056278521195054,
        -0.09187920391559601,
        0.012084873393177986,
        -0.018374333158135414,
        0.6327552795410156,
        -0.7292917966842651,
        -0.07323059439659119,
        -0.04696228355169296,
        0.028142493218183517,
        0.07529887557029724,
        0.005265773274004459,
        -0.37589430809020996,
        -0.12416605651378632,
        -0.11509478837251663,
        0.024031050503253937,
        -0.6513783931732178,
        0.43494948744773865,
        0.03411512449383736,
        0.7035697102546692,
        -0.1145503968000412,
        -0.28930163383483887,
        -0.06985905021429062,
        -0.159230038523674,
        -0.04283684119582176,
        -0.021142203360795975,
        0.17021143436431885,
        0.014603455550968647,
        0.04907219484448433,
        -0.27413809299468994,
        0.27278438210487366,
        0.1819930225610733,
        0.2038377970457077,
        0.01285403873771429,
        0.40259137749671936,
        -0.18595147132873535,
        0.3187074661254883,
        -0.3334762156009674,
        0.06503919512033463,
        0.12984639406204224,
        -0.21599707007408142,
        0.02583703026175499,
        0.1186070442199707,
        -0.14310553669929504,
        -0.24428270757198334,
        -0.14951755106449127,
        -0.559889018535614,
        0.1876055896282196,
        0.08916393667459488,
        0.2089381068944931,
        -0.3665449917316437,
        0.07419603317975998,
        0.08032145351171494,
        -0.4237808287143707,
        -0.07557983696460724,
        0.02650132216513157,
        -0.17662321031093597,
        0.025819426402449608,
        -0.15199388563632965,
        -0.024217113852500916,
        -0.3880785405635834,
        0.07551920413970947,
        0.24089089035987854,
        -0.026035401970148087,
        -0.03477024659514427,
        -0.0412323959171772,
        -0.31251204013824463,
        -0.04359745606780052,
        -0.04916230961680412,
        0.16400010883808136,
        -0.19839060306549072,
        -0.0857306644320488,
        -0.01750926673412323,
        -0.03893992677330971,
        -0.10211484879255295,
        0.04740137979388237,
        -0.1827939748764038,
        0.16480088233947754,
        0.17534266412258148,
        0.03536859527230263,
        -0.36239492893218994,
        -0.17555725574493408,
        0.06761495023965836,
        -0.06418078392744064,
        0.07877320796251297,
        0.3813994824886322,
        -0.1496317982673645,
        -0.5139941573143005,
        -0.08063892275094986,
        -0.3816997706890106,
        0.5503255724906921,
        -0.013562369160354137,
        0.17070406675338745,
        0.5400543808937073,
        -0.12252393364906311,
        0.2560763359069824,
        -0.4059293866157532,
        -0.3179914951324463,
        0.23174449801445007,
        -0.3321796655654907,
        -0.5156230926513672,
        1.1435062885284424,
        0.019181614741683006,
        0.02234855853021145,
        -0.16706883907318115,
        0.9225420355796814,
        0.025812998414039612,
        -0.033875372260808945,
        -0.2654764652252197,
        0.017472941428422928,
        -0.1063058152794838,
        -0.9875193238258362,
        -0.07129684835672379,
        -0.46314001083374023,
        -0.19089961051940918,
        -0.28217560052871704,
        -0.04014449939131737,
        0.43179479241371155,
        0.13590854406356812,
        0.023489369079470634,
        -0.825797438621521,
        0.030526520684361458,
        -0.02615523524582386,
        0.01964760757982731,
        -0.0021896592807024717,
        0.006334253121167421,
        0.1155485063791275,
        0.049294717609882355,
        0.21199463307857513,
        0.005889521446079016,
        0.24039848148822784,
        0.014328738674521446,
        -0.015443970449268818,
        -0.30568644404411316,
        0.8303752541542053,
        0.0008459779783152044,
        0.02536984160542488,
        0.05380773916840553,
        -0.2753714919090271,
        0.21296930313110352,
        0.32362040877342224,
        -0.004328303504735231,
        -0.19694483280181885,
        0.0013972206506878138,
        0.29888689517974854,
        -0.0716545507311821,
        0.03183856979012489,
        -0.8507261276245117,
        -0.415267676115036,
        -0.4060474932193756,
        -0.03255249559879303,
        -0.01061439048498869,
        -0.06440044194459915,
        -0.6280528903007507,
        -0.7932649850845337,
        -0.004774970002472401,
        0.005510568618774414,
        -0.4661692678928375,
        -0.3159348666667938,
        -0.1950143426656723,
        -0.008282394148409367,
        0.0188613161444664,
        -0.07579183578491211,
        -0.021700384095311165,
        -0.3259529769420624,
        0.21032801270484924,
        0.07787830382585526,
        0.0365680493414402,
        -0.39440402388572693,
        0.07416168600320816,
        0.040164437144994736,
        -0.022483687847852707,
        -0.021091947332024574,
        0.07174257189035416,
        0.3279608190059662,
        0.1858031153678894,
        0.07221511751413345,
        -0.022196197882294655,
        0.1184350922703743,
        -0.04767875000834465,
        -0.03190985321998596,
        -0.25833699107170105,
        0.2060767263174057,
        0.009062681347131729,
        -0.36588042974472046,
        0.059495970606803894,
        -0.03058229573071003,
        0.04593038186430931,
        0.07894206792116165,
        0.010592206381261349,
        -0.16243287920951843,
        0.07697080075740814,
        -0.2576172649860382,
        0.05685187503695488,
        0.14116765558719635,
        0.05281657353043556,
        -0.033184003084897995,
        0.5074578523635864,
        0.12993614375591278,
        -0.0018348973244428635,
        0.038960278034210205,
        0.10071483999490738,
        -0.3354150950908661,
        -0.27671244740486145,
        -0.17259910702705383,
        -0.06310396641492844,
        0.28699472546577454,
        0.014587749727070332,
        0.14388716220855713,
        -0.49486345052719116,
        0.048275288194417953,
        -0.30438557267189026,
        0.19336456060409546,
        0.07222287356853485,
        -0.06886627525091171,
        -0.2596869468688965,
        -0.021639209240674973,
        0.17779229581356049,
        0.20767620205879211,
        0.009093246422708035,
        0.0165743175894022,
        0.07247082889080048,
        -0.2308967411518097,
        -0.4998314380645752,
        -0.6047630310058594,
        0.038820601999759674,
        -0.1931367814540863,
        0.07103654742240906,
        0.17362789809703827,
        -0.211191788315773,
        0.07824873924255371,
        0.06034550070762634,
        -0.046226948499679565,
        -0.12122473120689392,
        0.041935745626688004,
        -0.02913367748260498,
        -0.1996527910232544,
        -0.19123348593711853,
        -0.014819092117249966,
        0.13518986105918884,
        -0.11705750972032547,
        0.09434203803539276,
        -0.13879087567329407,
        -0.2131817638874054,
        -0.11062115430831909,
        0.12829722464084625,
        -0.09455268830060959,
        0.050169892609119415,
        0.2890254259109497,
        0.03749539330601692,
        6.773618224542588e-05,
        0.0258624367415905,
        -0.01991826482117176,
        0.012964754365384579,
        -0.0064841387793421745,
        0.10544449090957642,
        0.11947531998157501,
        -0.15386174619197845,
        0.27168211340904236,
        0.03885935992002487,
        0.004979242570698261,
        0.004867414943873882,
        -0.28001782298088074,
        -0.12467493116855621,
        -0.029689643532037735,
        0.07229156047105789,
        -0.012434599921107292,
        -0.03768336400389671,
        -0.11119015514850616,
        -0.15921390056610107,
        -0.15262560546398163,
        0.022580886259675026,
        -0.20751604437828064,
        0.2817855775356293,
        0.03774089738726616,
        0.3849346339702606,
        -0.29406458139419556,
        0.06797506660223007,
        0.012571725063025951,
        0.10825231671333313,
        -0.030821161344647408,
        0.04723481461405754,
        0.16507267951965332,
        0.013446918688714504,
        0.021172383800148964,
        -0.20978021621704102,
        0.1690458208322525,
        0.23204758763313293,
        -0.055340640246868134,
        -0.03980368375778198,
        -0.08916652947664261,
        -0.25030621886253357,
        -0.16277796030044556,
        -0.22794209420681,
        0.07810529321432114,
        -0.00021707668201997876,
        0.1527176797389984,
        0.137189120054245,
        0.020715665072202682,
        -0.05952507629990578,
        -0.248537078499794,
        0.0606444850564003,
        -0.0516815111041069,
        0.2224390208721161,
        -0.2386198490858078,
        -0.4028303623199463,
        0.133448526263237,
        -0.10813866555690765,
        -0.04979071393609047,
        -0.08876833319664001,
        0.17683669924736023,
        0.07598184794187546,
        -0.06617465615272522,
        0.0060622175224125385,
        -0.013613411225378513,
        -0.03290410339832306,
        0.018971296027302742,
        0.03399521857500076,
        0.15103702247142792,
        0.09496542066335678,
        0.3077440559864044,
        -0.015457403846085072,
        0.11418429762125015,
        -0.045360106974840164,
        -0.04682578146457672,
        0.49089592695236206,
        0.04332917556166649,
        0.0009756314102560282,
        -0.03495671600103378,
        0.017085101455450058,
        -0.1726617068052292,
        0.07886895537376404,
        -0.0011964751174673438,
        -0.0883723571896553,
        0.09652465581893921,
        0.044689521193504333,
        -0.22867263853549957,
        -0.20470955967903137,
        -0.010211922228336334,
        -0.15089942514896393,
        -0.06977597624063492,
        -0.10215167701244354,
        -0.10100464522838593,
        -0.016998810693621635,
        -0.026256684213876724,
        -0.09931088984012604,
        0.16979679465293884,
        -0.03311750292778015,
        -0.02723708562552929,
        0.2714042067527771,
        -0.017110994085669518,
        0.14778804779052734,
        0.05733146890997887,
        0.518575131893158,
        0.5092459321022034,
        -0.04416234791278839,
        0.753446638584137,
        -0.30519697070121765,
        0.043231695890426636,
        0.019922995939850807,
        0.5226303935050964,
        0.23122020065784454,
        0.03832634538412094,
        -0.07643371820449829,
        0.15773098170757294,
        -0.0760783925652504,
        -0.02333066426217556,
        0.31195202469825745,
        -0.10822556912899017,
        0.011927219107747078,
        0.5914720296859741,
        0.05005423724651337,
        -0.04586998000741005,
        -0.16730442643165588,
        -0.0661960020661354,
        -0.006650902330875397,
        0.4429655373096466,
        0.037468280643224716,
        -0.0735456570982933,
        0.005982570815831423,
        -0.02122914046049118,
        0.03417712077498436,
        -0.14807254076004028,
        0.03687598556280136,
        -0.005332086235284805,
        -0.05031583830714226,
        -0.06568093597888947,
        0.020918356254696846,
        0.014232049696147442,
        -0.5495092272758484,
        -0.3401394784450531,
        -0.08264284580945969,
        -0.034626662731170654,
        0.041425324976444244,
        0.2262735813856125,
        0.22017569839954376,
        0.20891110599040985,
        -0.01482381857931614,
        -0.14912372827529907,
        0.020911194384098053,
        -0.34890633821487427,
        0.8907980918884277,
        0.05434340238571167,
        0.41065019369125366,
        -0.1501532793045044,
        -0.04926139488816261,
        -0.04599064588546753,
        0.07796751707792282,
        -0.059233807027339935,
        -0.20978324115276337,
        -0.11865457147359848,
        0.043608665466308594,
        0.028267228975892067,
        -0.26348042488098145,
        0.4627488851547241,
        -0.22894038259983063,
        0.10604967921972275,
        -0.37429124116897583,
        -0.039718255400657654,
        -0.2658022344112396,
        -0.0830996036529541,
        0.14670616388320923,
        -0.003080409951508045,
        0.1568588763475418,
        0.07928568124771118,
        -0.21792367100715637,
        0.14154697954654694,
        0.01286348793655634,
        -0.221047043800354,
        0.0062428913079202175,
        0.37183329463005066,
        0.24504128098487854,
        -0.1765037626028061,
        -0.22172458469867706,
        0.11162732541561127,
        -0.18454669415950775,
        -0.024722246453166008,
        -0.09863216429948807,
        0.2487732172012329,
        -0.002675756812095642,
        0.09016693383455276,
        0.1188143640756607,
        0.004611349198967218,
        0.08884558081626892,
        -0.17027966678142548,
        0.08861252665519714,
        -0.20824119448661804,
        0.06590684503316879,
        -0.07289711385965347,
        0.0662417858839035,
        -0.8164910078048706,
        0.09326768666505814,
        -0.006325616966933012,
        -0.8286688923835754,
        -0.06799982488155365,
        -0.05665413290262222,
        0.09459622949361801,
        0.12751683592796326,
        -0.3749871551990509,
        -0.22848470509052277,
        -0.10512758046388626,
        -0.03849896416068077,
        0.333208292722702,
        0.07609208673238754,
        -0.046461012214422226,
        -0.10607340186834335,
        0.11623450368642807,
        0.011958753690123558,
        0.11292926967144012,
        -0.07165224105119705,
        -0.03452106937766075,
        0.11086354404687881,
        0.01717108115553856,
        0.2434166967868805,
        -0.0799725204706192,
        0.13132964074611664,
        0.11662863194942474,
        -0.10047735273838043,
        0.1312626153230667,
        0.10231219232082367,
        -0.2354835569858551
      ]
    },
    {
      "architecture": "normalization",
      "bias": [
        -0.013183522038161755,
        -0.028086435049772263,
        -0.013339299708604813,
        -0.029242029413580894,
        -0.016457311809062958,
        -0.026703249663114548,
        -0.09381270408630371,
        -0.013202509842813015,
        -0.030989864841103554,
        -0.011906311847269535,
        -0.0066068135201931,
        -0.025023512542247772,
        -0.02555113472044468,
        -0.02513810247182846,
        -0.008956603705883026,
        -0.023756498470902443,
        -0.01193904597312212,
        -0.007869785651564598,
        -0.015261919237673283,
        -0.012510746717453003,
        -0.01583736017346382,
        -0.029520124197006226,
        -0.029700366780161858,
        -0.010779226198792458,
        -0.03216871619224548,
        -0.02575870044529438,
        -0.00928422249853611,
        -0.023708375170826912,
        -0.009072011336684227,
        -0.015371316112577915,
        -0.04232538118958473,
        -0.026426559314131737,
        -0.03660459443926811,
        -0.03541043400764465,
        -0.04286781698465347,
        -0.009802570566534996,
        -0.009385103359818459,
        -0.019673381000757217,
        -0.022345535457134247,
        -0.0122663090005517
      ],
      "weights": [
        50.5970458984375,
        27.52370262145996,
        38.712120056152344,
        14.111979484558105,
        47.51285171508789,
        47.700679779052734,
        16.869821548461914,
        39.70663070678711,
        16.428937911987305,
        51.229087829589844,
        45.81061553955078,
        21.242244720458984,
        31.262479782104492,
        18.537540435791016,
        32.70000457763672,
        34.439273834228516,
        37.59418869018555,
        52.90614318847656,
        45.94403839111328,
        62.59197998046875,
        22.949668884277344,
        13.148024559020996,
        17.91466522216797,
        52.57501220703125,
        50.789180755615234,
        21.648778915405273,
        51.569129943847656,
        41.64812088012695,
        24.001258850097656,
        47.22821807861328,
        21.873361587524414,
        13.911622047424316,
        19.09935760498047,
        25.470518112182617,
        21.307083129882812,
        48.27413558959961,
        57.848785400390625,
        50.481082916259766,
        29.57900047302246,
        49.78749084472656
      ]
    },
    {
      "activation": "softmax",
      "architecture": "dense",
      "bias": [
        0.17188479006290436,
        -0.4343186020851135,
        -0.603880763053894,
        -0.2343406230211258,
        0.36699703335762024,
        -0.15075720846652985,
        -0.19532622396945953,
        -0.2433897703886032,
        -0.13170340657234192,
        -0.1561185121536255,
        -0.12334268540143967,
        0.15338075160980225,
        -0.17925569415092468,
        -0.37946274876594543,
        0.12486535310745239,
        0.03175974264740944,
        -0.4399045705795288,
        0.5466886162757874,
        0.37235596776008606,
        -0.43980446457862854,
        -0.9468535780906677,
        -0.054900046437978745,
        -0.15707653760910034,
        -0.3543882668018341,
        -0.799495279788971,
        -0.2665611505508423,
        -0.47183436155319214,
        -0.11209305375814438,
        -0.19670318067073822,
        -0.14790859818458557,
        0.2114388793706894,
        0.04717632755637169,
        -0.022896863520145416,
        0.04520711302757263,
        -0.4105759859085083,
        0.21718575060367584,
        -0.28267237544059753,
        -0.3165338337421417,
        -0.5713138580322266,
        -0.2827092707157135,
        -0.34916257858276367,
        0.18460099399089813,
        -0.039263639599084854,
        -0.2809402346611023,
        -0.08477296680212021,
        0.007641378324478865,
        -0.0524841845035553,
        -0.16824105381965637,
        -0.1677638292312622,
        -0.4547123908996582,
        -0.010039368644356728,
        -0.398529976606369
      ],
      "weights": [
        0.2979336082935333,
        0.38109269738197327,
        0.4930439591407776,
        0.29042670130729675,
        0.3857254683971405,
        -0.5436685085296631,
        -1.0226783752441406,
        0.30939042568206787,
        0.32152101397514343,
        1.2706003189086914,
        -0.032657381147146225,
        0.3795853853225708,
        0.6171901226043701,
        -0.7081885933876038,
        0.02467675693333149,
        0.38522085547447205,
        0.004570146556943655,
        0.7320987582206726,
        0.20363682508468628,
        1.312221646308899,
        -0.2513531744480133,
        0.12795503437519073,
        -0.1704569309949875,
        0.18424199521541595,
        -0.10420520603656769,
        0.2530067563056946,
        0.6426751613616943,
        1.0398792028427124,
        0.40228360891342163,
        0.48131048679351807,
        0.15617644786834717,
        0.02046145126223564,
        -0.4368821680545807,
        0.547902524471283,
        0.08299846202135086,
        0.41645827889442444,
        0.7120078802108765,
        0.3791392743587494,
        -0.07936244457960129,
        0.6688532829284668,
        -0.1499546766281128,
        -0.5089355111122131,
        -0.49596863985061646,
        -0.04983663558959961,
        -0.660940408706665,
        -0.0033751355949789286,
        0.31932201981544495,
        -0.6097455620765686,
        0.23758801817893982,
        0.04101656749844551,
        -0.48876118659973145,
        -0.1471724808216095,
        -0.14867301285266876,
        0.34861674904823303,
        -0.02974342182278633,
        0.1578727811574936,
        -0.0760006383061409,
        -0.46623727679252625,
